svm_type epsilon_svr
kernel_type rbf
gamma 0.05
nr_class 2
total_sv 1350
rho -0.472677
SV
-1 1:-0.03 2:-0.02 3:-0.16 4:-0.16 5:-0.15 6:-0.01 7:0.02 8:0.02 9:0.03 10:0.01 11:0.01 12:-0.01 13:-0.01 14:-0.01 15:-0.02 16:-0.03 17:-0.01 18:0.02 19:0.02 
-1 1:-0.02 2:-0.16 3:-0.16 4:-0.15 5:-0.01 6:0.02 7:0.02 8:0.03 9:0.01 10:0.01 11:-0.01 12:-0.01 13:-0.01 14:-0.02 15:-0.03 16:-0.01 17:0.02 18:0.02 20:0.01 
-1 1:-0.16 2:-0.16 3:-0.15 4:-0.01 5:0.02 6:0.02 7:0.03 8:0.01 9:0.01 10:-0.01 11:-0.01 12:-0.01 13:-0.02 14:-0.03 15:-0.01 16:0.02 17:0.02 19:0.01 20:0.07 
-1 1:-0.16 2:-0.15 3:-0.01 4:0.02 5:0.02 6:0.03 7:0.01 8:0.01 9:-0.01 10:-0.01 11:-0.01 12:-0.02 13:-0.03 14:-0.01 15:0.02 16:0.02 18:0.01 19:0.07 20:0.07 
-1 1:-0.01 2:0.02 3:0.02 4:0.03 5:0.01 6:0.01 7:-0.01 8:-0.01 9:-0.01 10:-0.02 11:-0.03 12:-0.01 13:0.02 14:0.02 16:0.01 17:0.07 18:0.07 19:0.1 20:0.04 
-1 1:0.02 2:0.02 3:0.03 4:0.01 5:0.01 6:-0.01 7:-0.01 8:-0.01 9:-0.02 10:-0.03 11:-0.01 12:0.02 13:0.02 15:0.01 16:0.07 17:0.07 18:0.1 19:0.04 20:0.04 
-1 1:0.02 2:0.03 3:0.01 4:0.01 5:-0.01 6:-0.01 7:-0.01 8:-0.02 9:-0.03 10:-0.01 11:0.02 12:0.02 14:0.01 15:0.07 16:0.07 17:0.1 18:0.04 19:0.04 20:-0.03 
-1 1:0.03 2:0.01 3:0.01 4:-0.01 5:-0.01 6:-0.01 7:-0.02 8:-0.03 9:-0.01 10:0.02 11:0.02 13:0.01 14:0.07 15:0.07 16:0.1 17:0.04 18:0.04 19:-0.03 20:-0.01 
-1 1:0.01 2:0.01 3:-0.01 4:-0.01 5:-0.01 6:-0.02 7:-0.03 8:-0.01 9:0.02 10:0.02 12:0.01 13:0.07 14:0.07 15:0.1 16:0.04 17:0.04 18:-0.03 19:-0.01 20:-0.03 
-1 1:0.01 2:-0.01 3:-0.01 4:-0.01 5:-0.02 6:-0.03 7:-0.01 8:0.02 9:0.02 11:0.01 12:0.07 13:0.07 14:0.1 15:0.04 16:0.04 17:-0.03 18:-0.01 19:-0.03 
-1 1:-0.01 2:-0.01 3:-0.01 4:-0.02 5:-0.03 6:-0.01 7:0.02 8:0.02 10:0.01 11:0.07 12:0.07 13:0.1 14:0.04 15:0.04 16:-0.03 17:-0.01 18:-0.03 20:-0.01 
-1 1:-0.01 2:-0.01 3:-0.02 4:-0.03 5:-0.01 6:0.02 7:0.02 9:0.01 10:0.07 11:0.07 12:0.1 13:0.04 14:0.04 15:-0.03 16:-0.01 17:-0.03 19:-0.01 20:0.02 
-1 1:-0.01 2:-0.02 3:-0.03 4:-0.01 5:0.02 6:0.02 8:0.01 9:0.07 10:0.07 11:0.1 12:0.04 13:0.04 14:-0.03 15:-0.01 16:-0.03 18:-0.01 19:0.02 20:-0.02 
-1 1:-0.02 2:-0.03 3:-0.01 4:0.02 5:0.02 7:0.01 8:0.07 9:0.07 10:0.1 11:0.04 12:0.04 13:-0.03 14:-0.01 15:-0.03 17:-0.01 18:0.02 19:-0.02 20:-0.02 
-1 1:-0.03 2:-0.01 3:0.02 4:0.02 6:0.01 7:0.07 8:0.07 9:0.1 10:0.04 11:0.04 12:-0.03 13:-0.01 14:-0.03 16:-0.01 17:0.02 18:-0.02 19:-0.02 
-1 1:-0.01 2:0.02 3:0.02 5:0.01 6:0.07 7:0.07 8:0.1 9:0.04 10:0.04 11:-0.03 12:-0.01 13:-0.03 15:-0.01 16:0.02 17:-0.02 18:-0.02 20:0.01 
-1 1:0.02 2:0.02 4:0.01 5:0.07 6:0.07 7:0.1 8:0.04 9:0.04 10:-0.03 11:-0.01 12:-0.03 14:-0.01 15:0.02 16:-0.02 17:-0.02 19:0.01 20:0.03 
-1 1:0.02 3:0.01 4:0.07 5:0.07 6:0.1 7:0.04 8:0.04 9:-0.03 10:-0.01 11:-0.03 13:-0.01 14:0.02 15:-0.02 16:-0.02 18:0.01 19:0.03 20:0.01 
-1 2:0.01 3:0.07 4:0.07 5:0.1 6:0.04 7:0.04 8:-0.03 9:-0.01 10:-0.03 12:-0.01 13:0.02 14:-0.02 15:-0.02 17:0.01 18:0.03 19:0.01 20:0.04 
-1 1:0.01 2:0.07 3:0.07 4:0.1 5:0.04 6:0.04 7:-0.03 8:-0.01 9:-0.03 11:-0.01 12:0.02 13:-0.02 14:-0.02 16:0.01 17:0.03 18:0.01 19:0.04 20:0.01 
-1 1:0.07 2:0.07 3:0.1 4:0.04 5:0.04 6:-0.03 7:-0.01 8:-0.03 10:-0.01 11:0.02 12:-0.02 13:-0.02 15:0.01 16:0.03 17:0.01 18:0.04 19:0.01 20:0.02 
-1 1:0.07 2:0.1 3:0.04 4:0.04 5:-0.03 6:-0.01 7:-0.03 9:-0.01 10:0.02 11:-0.02 12:-0.02 14:0.01 15:0.03 16:0.01 17:0.04 18:0.01 19:0.02 20:0.02 
-1 1:0.1 2:0.04 3:0.04 4:-0.03 5:-0.01 6:-0.03 8:-0.01 9:0.02 10:-0.02 11:-0.02 13:0.01 14:0.03 15:0.01 16:0.04 17:0.01 18:0.02 19:0.02 20:0.01 
-1 1:0.04 2:0.04 3:-0.03 4:-0.01 5:-0.03 7:-0.01 8:0.02 9:-0.02 10:-0.02 12:0.01 13:0.03 14:0.01 15:0.04 16:0.01 17:0.02 18:0.02 19:0.01 20:-0.01 
-1 1:0.04 2:-0.03 3:-0.01 4:-0.03 6:-0.01 7:0.02 8:-0.02 9:-0.02 11:0.01 12:0.03 13:0.01 14:0.04 15:0.01 16:0.02 17:0.02 18:0.01 19:-0.01 20:-0.01 
-1 1:-0.03 2:-0.01 3:-0.03 5:-0.01 6:0.02 7:-0.02 8:-0.02 10:0.01 11:0.03 12:0.01 13:0.04 14:0.01 15:0.02 16:0.02 17:0.01 18:-0.01 19:-0.01 20:-0.02 
-1 1:-0.01 2:-0.03 4:-0.01 5:0.02 6:-0.02 7:-0.02 9:0.01 10:0.03 11:0.01 12:0.04 13:0.01 14:0.02 15:0.02 16:0.01 17:-0.01 18:-0.01 19:-0.02 20:-0.01 
-1 1:-0.03 3:-0.01 4:0.02 5:-0.02 6:-0.02 8:0.01 9:0.03 10:0.01 11:0.04 12:0.01 13:0.02 14:0.02 15:0.01 16:-0.01 17:-0.01 18:-0.02 19:-0.01 20:-0.02 
-1 2:-0.01 3:0.02 4:-0.02 5:-0.02 7:0.01 8:0.03 9:0.01 10:0.04 11:0.01 12:0.02 13:0.02 14:0.01 15:-0.01 16:-0.01 17:-0.02 18:-0.01 19:-0.02 20:-0.02 
-1 1:-0.01 2:0.02 3:-0.02 4:-0.02 6:0.01 7:0.03 8:0.01 9:0.04 10:0.01 11:0.02 12:0.02 13:0.01 14:-0.01 15:-0.01 16:-0.02 17:-0.01 18:-0.02 19:-0.02 20:-0.03 
-1 1:0.02 2:-0.02 3:-0.02 5:0.01 6:0.03 7:0.01 8:0.04 9:0.01 10:0.02 11:0.02 12:0.01 13:-0.01 14:-0.01 15:-0.02 16:-0.01 17:-0.02 18:-0.02 19:-0.03 20:0.02 
-1 1:-0.02 2:-0.02 4:0.01 5:0.03 6:0.01 7:0.04 8:0.01 9:0.02 10:0.02 11:0.01 12:-0.01 13:-0.01 14:-0.02 15:-0.01 16:-0.02 17:-0.02 18:-0.03 19:0.02 
-1 1:-0.02 3:0.01 4:0.03 5:0.01 6:0.04 7:0.01 8:0.02 9:0.02 10:0.01 11:-0.01 12:-0.01 13:-0.02 14:-0.01 15:-0.02 16:-0.02 17:-0.03 18:0.02 20:0.05 
-1 2:0.01 3:0.03 4:0.01 5:0.04 6:0.01 7:0.02 8:0.02 9:0.01 10:-0.01 11:-0.01 12:-0.02 13:-0.01 14:-0.02 15:-0.02 16:-0.03 17:0.02 19:0.05 20:0.01 
-1 1:0.01 2:0.03 3:0.01 4:0.04 5:0.01 6:0.02 7:0.02 8:0.01 9:-0.01 10:-0.01 11:-0.02 12:-0.01 13:-0.02 14:-0.02 15:-0.03 16:0.02 18:0.05 19:0.01 20:0.02 
-1 1:0.03 2:0.01 3:0.04 4:0.01 5:0.02 6:0.02 7:0.01 8:-0.01 9:-0.01 10:-0.02 11:-0.01 12:-0.02 13:-0.02 14:-0.03 15:0.02 17:0.05 18:0.01 19:0.02 20:-0.02 
-1 1:0.01 2:0.04 3:0.01 4:0.02 5:0.02 6:0.01 7:-0.01 8:-0.01 9:-0.02 10:-0.01 11:-0.02 12:-0.02 13:-0.03 14:0.02 16:0.05 17:0.01 18:0.02 19:-0.02 20:-0.02 
-1 1:0.04 2:0.01 3:0.02 4:0.02 5:0.01 6:-0.01 7:-0.01 8:-0.02 9:-0.01 10:-0.02 11:-0.02 12:-0.03 13:0.02 15:0.05 16:0.01 17:0.02 18:-0.02 19:-0.02 20:-0.04 
-1 1:0.01 2:0.02 3:0.02 4:0.01 5:-0.01 6:-0.01 7:-0.02 8:-0.01 9:-0.02 10:-0.02 11:-0.03 12:0.02 14:0.05 15:0.01 16:0.02 17:-0.02 18:-0.02 19:-0.04 20:-0.02 
-1 1:0.02 2:0.02 3:0.01 4:-0.01 5:-0.01 6:-0.02 7:-0.01 8:-0.02 9:-0.02 10:-0.03 11:0.02 13:0.05 14:0.01 15:0.02 16:-0.02 17:-0.02 18:-0.04 19:-0.02 20:-0.01 
-1 1:0.02 2:0.01 3:-0.01 4:-0.01 5:-0.02 6:-0.01 7:-0.02 8:-0.02 9:-0.03 10:0.02 12:0.05 13:0.01 14:0.02 15:-0.02 16:-0.02 17:-0.04 18:-0.02 19:-0.01 20:0.03 
-1 1:0.01 2:-0.01 3:-0.01 4:-0.02 5:-0.01 6:-0.02 7:-0.02 8:-0.03 9:0.02 11:0.05 12:0.01 13:0.02 14:-0.02 15:-0.02 16:-0.04 17:-0.02 18:-0.01 19:0.03 20:0.01 
-1 1:-0.01 2:-0.01 3:-0.02 4:-0.01 5:-0.02 6:-0.02 7:-0.03 8:0.02 10:0.05 11:0.01 12:0.02 13:-0.02 14:-0.02 15:-0.04 16:-0.02 17:-0.01 18:0.03 19:0.01 20:0.02 
-1 1:-0.01 2:-0.02 3:-0.01 4:-0.02 5:-0.02 6:-0.03 7:0.02 9:0.05 10:0.01 11:0.02 12:-0.02 13:-0.02 14:-0.04 15:-0.02 16:-0.01 17:0.03 18:0.01 19:0.02 20:0.02 
-1 1:-0.02 2:-0.01 3:-0.02 4:-0.02 5:-0.03 6:0.02 8:0.05 9:0.01 10:0.02 11:-0.02 12:-0.02 13:-0.04 14:-0.02 15:-0.01 16:0.03 17:0.01 18:0.02 19:0.02 20:0.02 
-1 1:-0.01 2:-0.02 3:-0.02 4:-0.03 5:0.02 7:0.05 8:0.01 9:0.02 10:-0.02 11:-0.02 12:-0.04 13:-0.02 14:-0.01 15:0.03 16:0.01 17:0.02 18:0.02 19:0.02 20:0.01 
-1 1:-0.02 2:-0.02 3:-0.03 4:0.02 6:0.05 7:0.01 8:0.02 9:-0.02 10:-0.02 11:-0.04 12:-0.02 13:-0.01 14:0.03 15:0.01 16:0.02 17:0.02 18:0.02 19:0.01 20:-0.1 
-1 1:-0.02 2:-0.03 3:0.02 5:0.05 6:0.01 7:0.02 8:-0.02 9:-0.02 10:-0.04 11:-0.02 12:-0.01 13:0.03 14:0.01 15:0.02 16:0.02 17:0.02 18:0.01 19:-0.1 20:-0.09 
-1 1:-0.03 2:0.02 4:0.05 5:0.01 6:0.02 7:-0.02 8:-0.02 9:-0.04 10:-0.02 11:-0.01 12:0.03 13:0.01 14:0.02 15:0.02 16:0.02 17:0.01 18:-0.1 19:-0.09 20:-0.08 
-1 1:0.02 3:0.05 4:0.01 5:0.02 6:-0.02 7:-0.02 8:-0.04 9:-0.02 10:-0.01 11:0.03 12:0.01 13:0.02 14:0.02 15:0.02 16:0.01 17:-0.1 18:-0.09 19:-0.08 20:0.01 
-1 2:0.05 3:0.01 4:0.02 5:-0.02 6:-0.02 7:-0.04 8:-0.02 9:-0.01 10:0.03 11:0.01 12:0.02 13:0.02 14:0.02 15:0.01 16:-0.1 17:-0.09 18:-0.08 19:0.01 20:-0.02 
-1 1:0.05 2:0.01 3:0.02 4:-0.02 5:-0.02 6:-0.04 7:-0.02 8:-0.01 9:0.03 10:0.01 11:0.02 12:0.02 13:0.02 14:0.01 15:-0.1 16:-0.09 17:-0.08 18:0.01 19:-0.02 20:-0.03 
-1 1:0.01 2:0.02 3:-0.02 4:-0.02 5:-0.04 6:-0.02 7:-0.01 8:0.03 9:0.01 10:0.02 11:0.02 12:0.02 13:0.01 14:-0.1 15:-0.09 16:-0.08 17:0.01 18:-0.02 19:-0.03 20:0.01 
-1 1:0.02 2:-0.02 3:-0.02 4:-0.04 5:-0.02 6:-0.01 7:0.03 8:0.01 9:0.02 10:0.02 11:0.02 12:0.01 13:-0.1 14:-0.09 15:-0.08 16:0.01 17:-0.02 18:-0.03 19:0.01 20:0.01 
-1 1:-0.02 2:-0.02 3:-0.04 4:-0.02 5:-0.01 6:0.03 7:0.01 8:0.02 9:0.02 10:0.02 11:0.01 12:-0.1 13:-0.09 14:-0.08 15:0.01 16:-0.02 17:-0.03 18:0.01 19:0.01 
-1 1:-0.02 2:-0.04 3:-0.02 4:-0.01 5:0.03 6:0.01 7:0.02 8:0.02 9:0.02 10:0.01 11:-0.1 12:-0.09 13:-0.08 14:0.01 15:-0.02 16:-0.03 17:0.01 18:0.01 20:0.04 
-1 1:-0.04 2:-0.02 3:-0.01 4:0.03 5:0.01 6:0.02 7:0.02 8:0.02 9:0.01 10:-0.1 11:-0.09 12:-0.08 13:0.01 14:-0.02 15:-0.03 16:0.01 17:0.01 19:0.04 20:0.05 
-1 1:-0.02 2:-0.01 3:0.03 4:0.01 5:0.02 6:0.02 7:0.02 8:0.01 9:-0.1 10:-0.09 11:-0.08 12:0.01 13:-0.02 14:-0.03 15:0.01 16:0.01 18:0.04 19:0.05 20:0.07 
-1 1:-0.01 2:0.03 3:0.01 4:0.02 5:0.02 6:0.02 7:0.01 8:-0.1 9:-0.09 10:-0.08 11:0.01 12:-0.02 13:-0.03 14:0.01 15:0.01 17:0.04 18:0.05 19:0.07 20:0.01 
-1 1:0.03 2:0.01 3:0.02 4:0.02 5:0.02 6:0.01 7:-0.1 8:-0.09 9:-0.08 10:0.01 11:-0.02 12:-0.03 13:0.01 14:0.01 16:0.04 17:0.05 18:0.07 19:0.01 20:0.02 
-1 1:0.01 2:0.02 3:0.02 4:0.02 5:0.01 6:-0.1 7:-0.09 8:-0.08 9:0.01 10:-0.02 11:-0.03 12:0.01 13:0.01 15:0.04 16:0.05 17:0.07 18:0.01 19:0.02 20:0.02 
-1 1:0.02 2:0.02 3:0.02 4:0.01 5:-0.1 6:-0.09 7:-0.08 8:0.01 9:-0.02 10:-0.03 11:0.01 12:0.01 14:0.04 15:0.05 16:0.07 17:0.01 18:0.02 19:0.02 
-1 1:0.02 2:0.02 3:0.01 4:-0.1 5:-0.09 6:-0.08 7:0.01 8:-0.02 9:-0.03 10:0.01 11:0.01 13:0.04 14:0.05 15:0.07 16:0.01 17:0.02 18:0.02 20:-0.02 
-1 1:0.02 2:0.01 3:-0.1 4:-0.09 5:-0.08 6:0.01 7:-0.02 8:-0.03 9:0.01 10:0.01 12:0.04 13:0.05 14:0.07 15:0.01 16:0.02 17:0.02 19:-0.02 20:-0.01 
-1 1:0.01 2:-0.1 3:-0.09 4:-0.08 5:0.01 6:-0.02 7:-0.03 8:0.01 9:0.01 11:0.04 12:0.05 13:0.07 14:0.01 15:0.02 16:0.02 18:-0.02 19:-0.01 20:0.01 
-1 1:-0.1 2:-0.09 3:-0.08 4:0.01 5:-0.02 6:-0.03 7:0.01 8:0.01 10:0.04 11:0.05 12:0.07 13:0.01 14:0.02 15:0.02 17:-0.02 18:-0.01 19:0.01 
-1 1:-0.09 2:-0.08 3:0.01 4:-0.02 5:-0.03 6:0.01 7:0.01 9:0.04 10:0.05 11:0.07 12:0.01 13:0.02 14:0.02 16:-0.02 17:-0.01 18:0.01 20:0.01 
-1 1:-0.08 2:0.01 3:-0.02 4:-0.03 5:0.01 6:0.01 8:0.04 9:0.05 10:0.07 11:0.01 12:0.02 13:0.02 15:-0.02 16:-0.01 17:0.01 19:0.01 20:-0.01 
-1 1:0.01 2:-0.02 3:-0.03 4:0.01 5:0.01 7:0.04 8:0.05 9:0.07 10:0.01 11:0.02 12:0.02 14:-0.02 15:-0.01 16:0.01 18:0.01 19:-0.01 20:0.05 
-1 1:-0.02 2:-0.03 3:0.01 4:0.01 6:0.04 7:0.05 8:0.07 9:0.01 10:0.02 11:0.02 13:-0.02 14:-0.01 15:0.01 17:0.01 18:-0.01 19:0.05 20:0.06 
-1 1:-0.03 2:0.01 3:0.01 5:0.04 6:0.05 7:0.07 8:0.01 9:0.02 10:0.02 12:-0.02 13:-0.01 14:0.01 16:0.01 17:-0.01 18:0.05 19:0.06 20:0.06 
-1 1:0.01 2:0.01 4:0.04 5:0.05 6:0.07 7:0.01 8:0.02 9:0.02 11:-0.02 12:-0.01 13:0.01 15:0.01 16:-0.01 17:0.05 18:0.06 19:0.06 20:-0.01 
-1 1:0.01 3:0.04 4:0.05 5:0.07 6:0.01 7:0.02 8:0.02 10:-0.02 11:-0.01 12:0.01 14:0.01 15:-0.01 16:0.05 17:0.06 18:0.06 19:-0.01 20:-0.04 
-1 2:0.04 3:0.05 4:0.07 5:0.01 6:0.02 7:0.02 9:-0.02 10:-0.01 11:0.01 13:0.01 14:-0.01 15:0.05 16:0.06 17:0.06 18:-0.01 19:-0.04 20:0.01 
-1 1:0.04 2:0.05 3:0.07 4:0.01 5:0.02 6:0.02 8:-0.02 9:-0.01 10:0.01 12:0.01 13:-0.01 14:0.05 15:0.06 16:0.06 17:-0.01 18:-0.04 19:0.01 
-1 1:0.05 2:0.07 3:0.01 4:0.02 5:0.02 7:-0.02 8:-0.01 9:0.01 11:0.01 12:-0.01 13:0.05 14:0.06 15:0.06 16:-0.01 17:-0.04 18:0.01 20:0.01 
-1 1:0.07 2:0.01 3:0.02 4:0.02 6:-0.02 7:-0.01 8:0.01 10:0.01 11:-0.01 12:0.05 13:0.06 14:0.06 15:-0.01 16:-0.04 17:0.01 19:0.01 20:-0.01 
-1 1:0.01 2:0.02 3:0.02 5:-0.02 6:-0.01 7:0.01 9:0.01 10:-0.01 11:0.05 12:0.06 13:0.06 14:-0.01 15:-0.04 16:0.01 18:0.01 19:-0.01 20:0.01 
-1 1:-0.02 2:-0.01 3:0.01 5:0.01 6:-0.01 7:0.05 8:0.06 9:0.06 10:-0.01 11:-0.04 12:0.01 14:0.01 15:-0.01 16:0.01 17:0.1 18:0.11 19:0.07 20:-0.03 
-1 1:-0.01 2:0.01 4:0.01 5:-0.01 6:0.05 7:0.06 8:0.06 9:-0.01 10:-0.04 11:0.01 13:0.01 14:-0.01 15:0.01 16:0.1 17:0.11 18:0.07 19:-0.03 20:-0.03 
-1 1:0.01 3:0.01 4:-0.01 5:0.05 6:0.06 7:0.06 8:-0.01 9:-0.04 10:0.01 12:0.01 13:-0.01 14:0.01 15:0.1 16:0.11 17:0.07 18:-0.03 19:-0.03 
-1 2:0.01 3:-0.01 4:0.05 5:0.06 6:0.06 7:-0.01 8:-0.04 9:0.01 11:0.01 12:-0.01 13:0.01 14:0.1 15:0.11 16:0.07 17:-0.03 18:-0.03 20:-0.01 
-1 1:0.01 2:-0.01 3:0.05 4:0.06 5:0.06 6:-0.01 7:-0.04 8:0.01 10:0.01 11:-0.01 12:0.01 13:0.1 14:0.11 15:0.07 16:-0.03 17:-0.03 19:-0.01 
-1 1:-0.01 2:0.05 3:0.06 4:0.06 5:-0.01 6:-0.04 7:0.01 9:0.01 10:-0.01 11:0.01 12:0.1 13:0.11 14:0.07 15:-0.03 16:-0.03 18:-0.01 
-1 1:0.05 2:0.06 3:0.06 4:-0.01 5:-0.04 6:0.01 8:0.01 9:-0.01 10:0.01 11:0.1 12:0.11 13:0.07 14:-0.03 15:-0.03 17:-0.01 20:0.02 
-1 1:0.06 2:0.06 3:-0.01 4:-0.04 5:0.01 7:0.01 8:-0.01 9:0.01 10:0.1 11:0.11 12:0.07 13:-0.03 14:-0.03 16:-0.01 19:0.02 20:-0.02 
-1 1:0.06 2:-0.01 3:-0.04 4:0.01 6:0.01 7:-0.01 8:0.01 9:0.1 10:0.11 11:0.07 12:-0.03 13:-0.03 15:-0.01 18:0.02 19:-0.02 20:-0.03 
-1 1:-0.01 2:-0.04 3:0.01 5:0.01 6:-0.01 7:0.01 8:0.1 9:0.11 10:0.07 11:-0.03 12:-0.03 14:-0.01 17:0.02 18:-0.02 19:-0.03 20:-0.02 
-1 1:-0.04 2:0.01 4:0.01 5:-0.01 6:0.01 7:0.1 8:0.11 9:0.07 10:-0.03 11:-0.03 13:-0.01 16:0.02 17:-0.02 18:-0.03 19:-0.02 20:-0.01 
-1 1:0.01 3:0.01 4:-0.01 5:0.01 6:0.1 7:0.11 8:0.07 9:-0.03 10:-0.03 12:-0.01 15:0.02 16:-0.02 17:-0.03 18:-0.02 19:-0.01 20:-0.04 
-1 2:0.01 3:-0.01 4:0.01 5:0.1 6:0.11 7:0.07 8:-0.03 9:-0.03 11:-0.01 14:0.02 15:-0.02 16:-0.03 17:-0.02 18:-0.01 19:-0.04 20:-0.06 
-1 1:-0.01 2:0.01 3:0.1 4:0.11 5:0.07 6:-0.03 7:-0.03 9:-0.01 12:0.02 13:-0.02 14:-0.03 15:-0.02 16:-0.01 17:-0.04 18:-0.06 19:-0.07 20:-0.03 
-1 2:-0.01 5:0.02 6:-0.02 7:-0.03 8:-0.02 9:-0.01 10:-0.04 11:-0.06 12:-0.07 13:-0.03 14:-0.03 15:0.02 17:0.04 18:0.01 19:0.03 20:-0.02 
-1 1:-0.01 4:0.02 5:-0.02 6:-0.03 7:-0.02 8:-0.01 9:-0.04 10:-0.06 11:-0.07 12:-0.03 13:-0.03 14:0.02 16:0.04 17:0.01 18:0.03 19:-0.02 20:-0.04 
1 1:-0.03 2:-0.02 3:-0.01 4:-0.04 5:-0.06 6:-0.07 7:-0.03 8:-0.03 9:0.02 11:0.04 12:0.01 13:0.03 14:-0.02 15:-0.04 16:-0.04 17:-0.06 18:-0.04 19:-0.03 20:-0.05 
1 1:-0.02 2:-0.01 3:-0.04 4:-0.06 5:-0.07 6:-0.03 7:-0.03 8:0.02 10:0.04 11:0.01 12:0.03 13:-0.02 14:-0.04 15:-0.04 16:-0.06 17:-0.04 18:-0.03 19:-0.05 20:-0.1 
1 1:-0.01 2:-0.04 3:-0.06 4:-0.07 5:-0.03 6:-0.03 7:0.02 9:0.04 10:0.01 11:0.03 12:-0.02 13:-0.04 14:-0.04 15:-0.06 16:-0.04 17:-0.03 18:-0.05 19:-0.1 20:-0.03 
1 1:-0.04 2:-0.06 3:-0.07 4:-0.03 5:-0.03 6:0.02 8:0.04 9:0.01 10:0.03 11:-0.02 12:-0.04 13:-0.04 14:-0.06 15:-0.04 16:-0.03 17:-0.05 18:-0.1 19:-0.03 20:0.04 
1 1:-0.06 2:-0.07 3:-0.03 4:-0.03 5:0.02 7:0.04 8:0.01 9:0.03 10:-0.02 11:-0.04 12:-0.04 13:-0.06 14:-0.04 15:-0.03 16:-0.05 17:-0.1 18:-0.03 19:0.04 20:0.11 
1 1:-0.07 2:-0.03 3:-0.03 4:0.02 6:0.04 7:0.01 8:0.03 9:-0.02 10:-0.04 11:-0.04 12:-0.06 13:-0.04 14:-0.03 15:-0.05 16:-0.1 17:-0.03 18:0.04 19:0.11 20:0.03 
1 1:-0.03 2:-0.03 3:0.02 5:0.04 6:0.01 7:0.03 8:-0.02 9:-0.04 10:-0.04 11:-0.06 12:-0.04 13:-0.03 14:-0.05 15:-0.1 16:-0.03 17:0.04 18:0.11 19:0.03 20:0.03 
0.1294789810694033 1:0.02 3:0.04 4:0.01 5:0.03 6:-0.02 7:-0.04 8:-0.04 9:-0.06 10:-0.04 11:-0.03 12:-0.05 13:-0.1 14:-0.03 15:0.04 16:0.11 17:0.03 18:0.03 19:0.02 
-1 1:-0.02 2:-0.04 3:-0.04 4:-0.06 5:-0.04 6:-0.03 7:-0.05 8:-0.1 9:-0.03 10:0.04 11:0.11 12:0.03 13:0.03 14:0.02 16:0.01 17:-0.01 18:0.01 19:0.01 20:-0.01 
-1 1:-0.04 2:-0.04 3:-0.06 4:-0.04 5:-0.03 6:-0.05 7:-0.1 8:-0.03 9:0.04 10:0.11 11:0.03 12:0.03 13:0.02 15:0.01 16:-0.01 17:0.01 18:0.01 19:-0.01 20:-0.01 
1 1:-0.04 2:-0.06 3:-0.04 4:-0.03 5:-0.05 6:-0.1 7:-0.03 8:0.04 9:0.11 10:0.03 11:0.03 12:0.02 14:0.01 15:-0.01 16:0.01 17:0.01 18:-0.01 19:-0.01 20:-0.01 
0.6902914654386176 1:-0.04 2:-0.03 3:-0.05 4:-0.1 5:-0.03 6:0.04 7:0.11 8:0.03 9:0.03 10:0.02 12:0.01 13:-0.01 14:0.01 15:0.01 16:-0.01 17:-0.01 18:-0.01 19:0.02 20:0.01 
1 1:-0.05 2:-0.1 3:-0.03 4:0.04 5:0.11 6:0.03 7:0.03 8:0.02 10:0.01 11:-0.01 12:0.01 13:0.01 14:-0.01 15:-0.01 16:-0.01 17:0.02 18:0.01 19:0.04 20:0.03 
1 1:-0.1 2:-0.03 3:0.04 4:0.11 5:0.03 6:0.03 7:0.02 9:0.01 10:-0.01 11:0.01 12:0.01 13:-0.01 14:-0.01 15:-0.01 16:0.02 17:0.01 18:0.04 19:0.03 20:0.04 
1 1:-0.03 2:0.04 3:0.11 4:0.03 5:0.03 6:0.02 8:0.01 9:-0.01 10:0.01 11:0.01 12:-0.01 13:-0.01 14:-0.01 15:0.02 16:0.01 17:0.04 18:0.03 19:0.04 20:0.01 
1 1:0.04 2:0.11 3:0.03 4:0.03 5:0.02 7:0.01 8:-0.01 9:0.01 10:0.01 11:-0.01 12:-0.01 13:-0.01 14:0.02 15:0.01 16:0.04 17:0.03 18:0.04 19:0.01 20:0.01 
1 1:0.11 2:0.03 3:0.03 4:0.02 6:0.01 7:-0.01 8:0.01 9:0.01 10:-0.01 11:-0.01 12:-0.01 13:0.02 14:0.01 15:0.04 16:0.03 17:0.04 18:0.01 19:0.01 20:0.02 
1 1:0.03 2:0.03 3:0.02 5:0.01 6:-0.01 7:0.01 8:0.01 9:-0.01 10:-0.01 11:-0.01 12:0.02 13:0.01 14:0.04 15:0.03 16:0.04 17:0.01 18:0.01 19:0.02 20:0.01 
1 1:0.03 2:0.02 4:0.01 5:-0.01 6:0.01 7:0.01 8:-0.01 9:-0.01 10:-0.01 11:0.02 12:0.01 13:0.04 14:0.03 15:0.04 16:0.01 17:0.01 18:0.02 19:0.01 
1 1:0.02 3:0.01 4:-0.01 5:0.01 6:0.01 7:-0.01 8:-0.01 9:-0.01 10:0.02 11:0.01 12:0.04 13:0.03 14:0.04 15:0.01 16:0.01 17:0.02 18:0.01 20:-0.02 
1 2:0.01 3:-0.01 4:0.01 5:0.01 6:-0.01 7:-0.01 8:-0.01 9:0.02 10:0.01 11:0.04 12:0.03 13:0.04 14:0.01 15:0.01 16:0.02 17:0.01 19:-0.02 
1 1:0.01 2:-0.01 3:0.01 4:0.01 5:-0.01 6:-0.01 7:-0.01 8:0.02 9:0.01 10:0.04 11:0.03 12:0.04 13:0.01 14:0.01 15:0.02 16:0.01 18:-0.02 20:0.01 
1 1:-0.01 2:0.01 3:0.01 4:-0.01 5:-0.01 6:-0.01 7:0.02 8:0.01 9:0.04 10:0.03 11:0.04 12:0.01 13:0.01 14:0.02 15:0.01 17:-0.02 19:0.01 20:0.03 
1 1:0.01 2:0.01 3:-0.01 4:-0.01 5:-0.01 6:0.02 7:0.01 8:0.04 9:0.03 10:0.04 11:0.01 12:0.01 13:0.02 14:0.01 16:-0.02 18:0.01 19:0.03 20:0.01 
1 1:0.01 2:-0.01 3:-0.01 4:-0.01 5:0.02 6:0.01 7:0.04 8:0.03 9:0.04 10:0.01 11:0.01 12:0.02 13:0.01 15:-0.02 17:0.01 18:0.03 19:0.01 
1 1:-0.01 2:-0.01 3:-0.01 4:0.02 5:0.01 6:0.04 7:0.03 8:0.04 9:0.01 10:0.01 11:0.02 12:0.01 14:-0.02 16:0.01 17:0.03 18:0.01 
1 1:-0.01 2:-0.01 3:0.02 4:0.01 5:0.04 6:0.03 7:0.04 8:0.01 9:0.01 10:0.02 11:0.01 13:-0.02 15:0.01 16:0.03 17:0.01 20:0.01 
1 1:-0.01 2:0.02 3:0.01 4:0.04 5:0.03 6:0.04 7:0.01 8:0.01 9:0.02 10:0.01 12:-0.02 14:0.01 15:0.03 16:0.01 19:0.01 20:0.03 
1 1:0.02 2:0.01 3:0.04 4:0.03 5:0.04 6:0.01 7:0.01 8:0.02 9:0.01 11:-0.02 13:0.01 14:0.03 15:0.01 18:0.01 19:0.03 20:-0.01 
1 1:0.01 2:0.04 3:0.03 4:0.04 5:0.01 6:0.01 7:0.02 8:0.01 10:-0.02 12:0.01 13:0.03 14:0.01 17:0.01 18:0.03 19:-0.01 
1 1:0.04 2:0.03 3:0.04 4:0.01 5:0.01 6:0.02 7:0.01 9:-0.02 11:0.01 12:0.03 13:0.01 16:0.01 17:0.03 18:-0.01 20:-0.02 
1 1:0.03 2:0.04 3:0.01 4:0.01 5:0.02 6:0.01 8:-0.02 10:0.01 11:0.03 12:0.01 15:0.01 16:0.03 17:-0.01 19:-0.02 20:0.01 
1 1:0.04 2:0.01 3:0.01 4:0.02 5:0.01 7:-0.02 9:0.01 10:0.03 11:0.01 14:0.01 15:0.03 16:-0.01 18:-0.02 19:0.01 20:-0.03 
1 1:0.01 2:0.01 3:0.02 4:0.01 6:-0.02 8:0.01 9:0.03 10:0.01 13:0.01 14:0.03 15:-0.01 17:-0.02 18:0.01 19:-0.03 
1 1:0.01 2:0.02 3:0.01 5:-0.02 7:0.01 8:0.03 9:0.01 12:0.01 13:0.03 14:-0.01 16:-0.02 17:0.01 18:-0.03 20:-0.02 
1 1:0.02 2:0.01 4:-0.02 6:0.01 7:0.03 8:0.01 11:0.01 12:0.03 13:-0.01 15:-0.02 16:0.01 17:-0.03 19:-0.02 20:0.03 
1 1:0.01 3:-0.02 5:0.01 6:0.03 7:0.01 10:0.01 11:0.03 12:-0.01 14:-0.02 15:0.01 16:-0.03 18:-0.02 19:0.03 20:0.04 
1 2:-0.02 4:0.01 5:0.03 6:0.01 9:0.01 10:0.03 11:-0.01 13:-0.02 14:0.01 15:-0.03 17:-0.02 18:0.03 19:0.04 20:0.04 
1 1:-0.02 3:0.01 4:0.03 5:0.01 8:0.01 9:0.03 10:-0.01 12:-0.02 13:0.01 14:-0.03 16:-0.02 17:0.03 18:0.04 19:0.04 20:0.01 
1 2:0.01 3:0.03 4:0.01 7:0.01 8:0.03 9:-0.01 11:-0.02 12:0.01 13:-0.03 15:-0.02 16:0.03 17:0.04 18:0.04 19:0.01 
1 1:0.01 2:0.03 3:0.01 6:0.01 7:0.03 8:-0.01 10:-0.02 11:0.01 12:-0.03 14:-0.02 15:0.03 16:0.04 17:0.04 18:0.01 20:-0.02 
1 1:0.03 2:0.01 5:0.01 6:0.03 7:-0.01 9:-0.02 10:0.01 11:-0.03 13:-0.02 14:0.03 15:0.04 16:0.04 17:0.01 19:-0.02 20:0.01 
1 1:0.01 4:0.01 5:0.03 6:-0.01 8:-0.02 9:0.01 10:-0.03 12:-0.02 13:0.03 14:0.04 15:0.04 16:0.01 18:-0.02 19:0.01 20:0.02 
1 3:0.01 4:0.03 5:-0.01 7:-0.02 8:0.01 9:-0.03 11:-0.02 12:0.03 13:0.04 14:0.04 15:0.01 17:-0.02 18:0.01 19:0.02 20:0.03 
1 2:0.01 3:0.03 4:-0.01 6:-0.02 7:0.01 8:-0.03 10:-0.02 11:0.03 12:0.04 13:0.04 14:0.01 16:-0.02 17:0.01 18:0.02 19:0.03 
1 1:0.01 2:0.03 3:-0.01 5:-0.02 6:0.01 7:-0.03 9:-0.02 10:0.03 11:0.04 12:0.04 13:0.01 15:-0.02 16:0.01 17:0.02 18:0.03 20:0.01 
1 1:0.03 2:-0.01 4:-0.02 5:0.01 6:-0.03 8:-0.02 9:0.03 10:0.04 11:0.04 12:0.01 14:-0.02 15:0.01 16:0.02 17:0.03 19:0.01 
1 1:-0.01 3:-0.02 4:0.01 5:-0.03 7:-0.02 8:0.03 9:0.04 10:0.04 11:0.01 13:-0.02 14:0.01 15:0.02 16:0.03 18:0.01 20:0.02 
1 2:-0.02 3:0.01 4:-0.03 6:-0.02 7:0.03 8:0.04 9:0.04 10:0.01 12:-0.02 13:0.01 14:0.02 15:0.03 17:0.01 19:0.02 
1 1:-0.02 2:0.01 3:-0.03 5:-0.02 6:0.03 7:0.04 8:0.04 9:0.01 11:-0.02 12:0.01 13:0.02 14:0.03 16:0.01 18:0.02 20:0.01 
1 1:0.01 2:-0.03 4:-0.02 5:0.03 6:0.04 7:0.04 8:0.01 10:-0.02 11:0.01 12:0.02 13:0.03 15:0.01 17:0.02 19:0.01 20:0.01 
1 1:-0.03 3:-0.02 4:0.03 5:0.04 6:0.04 7:0.01 9:-0.02 10:0.01 11:0.02 12:0.03 14:0.01 16:0.02 18:0.01 19:0.01 20:0.02 
1 2:-0.02 3:0.03 4:0.04 5:0.04 6:0.01 8:-0.02 9:0.01 10:0.02 11:0.03 13:0.01 15:0.02 17:0.01 18:0.01 19:0.02 
1 1:-0.02 2:0.03 3:0.04 4:0.04 5:0.01 7:-0.02 8:0.01 9:0.02 10:0.03 12:0.01 14:0.02 16:0.01 17:0.01 18:0.02 20:0.03 
1 1:0.03 2:0.04 3:0.04 4:0.01 6:-0.02 7:0.01 8:0.02 9:0.03 11:0.01 13:0.02 15:0.01 16:0.01 17:0.02 19:0.03 20:0.01 
1 1:0.04 2:0.04 3:0.01 5:-0.02 6:0.01 7:0.02 8:0.03 10:0.01 12:0.02 14:0.01 15:0.01 16:0.02 18:0.03 19:0.01 20:0.01 
1 1:0.04 2:0.01 4:-0.02 5:0.01 6:0.02 7:0.03 9:0.01 11:0.02 13:0.01 14:0.01 15:0.02 17:0.03 18:0.01 19:0.01 20:-0.02 
1 1:0.01 3:-0.02 4:0.01 5:0.02 6:0.03 8:0.01 10:0.02 12:0.01 13:0.01 14:0.02 16:0.03 17:0.01 18:0.01 19:-0.02 20:0.02 
1 2:-0.02 3:0.01 4:0.02 5:0.03 7:0.01 9:0.02 11:0.01 12:0.01 13:0.02 15:0.03 16:0.01 17:0.01 18:-0.02 19:0.02 20:0.02 
1 1:-0.02 2:0.01 3:0.02 4:0.03 6:0.01 8:0.02 10:0.01 11:0.01 12:0.02 14:0.03 15:0.01 16:0.01 17:-0.02 18:0.02 19:0.02 20:-0.06 
1 1:0.01 2:0.02 3:0.03 5:0.01 7:0.02 9:0.01 10:0.01 11:0.02 13:0.03 14:0.01 15:0.01 16:-0.02 17:0.02 18:0.02 19:-0.06 20:-0.09 
1 1:0.02 2:0.03 4:0.01 6:0.02 8:0.01 9:0.01 10:0.02 12:0.03 13:0.01 14:0.01 15:-0.02 16:0.02 17:0.02 18:-0.06 19:-0.09 20:-0.09 
1 1:0.03 3:0.01 5:0.02 7:0.01 8:0.01 9:0.02 11:0.03 12:0.01 13:0.01 14:-0.02 15:0.02 16:0.02 17:-0.06 18:-0.09 19:-0.09 
1 2:0.01 4:0.02 6:0.01 7:0.01 8:0.02 10:0.03 11:0.01 12:0.01 13:-0.02 14:0.02 15:0.02 16:-0.06 17:-0.09 18:-0.09 
1 1:0.01 3:0.02 5:0.01 6:0.01 7:0.02 9:0.03 10:0.01 11:0.01 12:-0.02 13:0.02 14:0.02 15:-0.06 16:-0.09 17:-0.09 20:-0.03 
1 2:0.02 4:0.01 5:0.01 6:0.02 8:0.03 9:0.01 10:0.01 11:-0.02 12:0.02 13:0.02 14:-0.06 15:-0.09 16:-0.09 19:-0.03 20:-0.05 
1 1:0.02 3:0.01 4:0.01 5:0.02 7:0.03 8:0.01 9:0.01 10:-0.02 11:0.02 12:0.02 13:-0.06 14:-0.09 15:-0.09 18:-0.03 19:-0.05 20:-0.04 
-1 2:0.01 3:0.01 4:0.02 6:0.03 7:0.01 8:0.01 9:-0.02 10:0.02 11:0.02 12:-0.06 13:-0.09 14:-0.09 17:-0.03 18:-0.05 19:-0.04 20:-0.03 
-1 1:0.01 2:0.01 3:0.02 5:0.03 6:0.01 7:0.01 8:-0.02 9:0.02 10:0.02 11:-0.06 12:-0.09 13:-0.09 16:-0.03 17:-0.05 18:-0.04 19:-0.03 20:-0.02 
1 1:0.01 2:0.02 4:0.03 5:0.01 6:0.01 7:-0.02 8:0.02 9:0.02 10:-0.06 11:-0.09 12:-0.09 15:-0.03 16:-0.05 17:-0.04 18:-0.03 19:-0.02 20:0.01 
1 1:0.02 3:0.03 4:0.01 5:0.01 6:-0.02 7:0.02 8:0.02 9:-0.06 10:-0.09 11:-0.09 14:-0.03 15:-0.05 16:-0.04 17:-0.03 18:-0.02 19:0.01 20:0.01 
-1 2:0.03 3:0.01 4:0.01 5:-0.02 6:0.02 7:0.02 8:-0.06 9:-0.09 10:-0.09 13:-0.03 14:-0.05 15:-0.04 16:-0.03 17:-0.02 18:0.01 19:0.01 20:0.01 
-1 1:0.03 2:0.01 3:0.01 4:-0.02 5:0.02 6:0.02 7:-0.06 8:-0.09 9:-0.09 12:-0.03 13:-0.05 14:-0.04 15:-0.03 16:-0.02 17:0.01 18:0.01 19:0.01 20:-0.01 
1 1:0.01 2:0.01 3:-0.02 4:0.02 5:0.02 6:-0.06 7:-0.09 8:-0.09 11:-0.03 12:-0.05 13:-0.04 14:-0.03 15:-0.02 16:0.01 17:0.01 18:0.01 19:-0.01 20:0.02 
1 1:0.01 2:-0.02 3:0.02 4:0.02 5:-0.06 6:-0.09 7:-0.09 10:-0.03 11:-0.05 12:-0.04 13:-0.03 14:-0.02 15:0.01 16:0.01 17:0.01 18:-0.01 19:0.02 20:0.05 
1 1:-0.02 2:0.02 3:0.02 4:-0.06 5:-0.09 6:-0.09 9:-0.03 10:-0.05 11:-0.04 12:-0.03 13:-0.02 14:0.01 15:0.01 16:0.01 17:-0.01 18:0.02 19:0.05 20:0.05 
1 1:0.02 2:0.02 3:-0.06 4:-0.09 5:-0.09 8:-0.03 9:-0.05 10:-0.04 11:-0.03 12:-0.02 13:0.01 14:0.01 15:0.01 16:-0.01 17:0.02 18:0.05 19:0.05 20:-0.01 
1 1:0.02 2:-0.06 3:-0.09 4:-0.09 7:-0.03 8:-0.05 9:-0.04 10:-0.03 11:-0.02 12:0.01 13:0.01 14:0.01 15:-0.01 16:0.02 17:0.05 18:0.05 19:-0.01 20:-0.03 
1 1:-0.06 2:-0.09 3:-0.09 6:-0.03 7:-0.05 8:-0.04 9:-0.03 10:-0.02 11:0.01 12:0.01 13:0.01 14:-0.01 15:0.02 16:0.05 17:0.05 18:-0.01 19:-0.03 20:-0.01 
1 1:-0.09 2:-0.09 5:-0.03 6:-0.05 7:-0.04 8:-0.03 9:-0.02 10:0.01 11:0.01 12:0.01 13:-0.01 14:0.02 15:0.05 16:0.05 17:-0.01 18:-0.03 19:-0.01 20:0.03 
1 1:-0.09 4:-0.03 5:-0.05 6:-0.04 7:-0.03 8:-0.02 9:0.01 10:0.01 11:0.01 12:-0.01 13:0.02 14:0.05 15:0.05 16:-0.01 17:-0.03 18:-0.01 19:0.03 20:0.05 
1 3:-0.03 4:-0.05 5:-0.04 6:-0.03 7:-0.02 8:0.01 9:0.01 10:0.01 11:-0.01 12:0.02 13:0.05 14:0.05 15:-0.01 16:-0.03 17:-0.01 18:0.03 19:0.05 20:0.03 
1 2:-0.03 3:-0.05 4:-0.04 5:-0.03 6:-0.02 7:0.01 8:0.01 9:0.01 10:-0.01 11:0.02 12:0.05 13:0.05 14:-0.01 15:-0.03 16:-0.01 17:0.03 18:0.05 19:0.03 20:-0.01 
1 1:-0.03 2:-0.05 3:-0.04 4:-0.03 5:-0.02 6:0.01 7:0.01 8:0.01 9:-0.01 10:0.02 11:0.05 12:0.05 13:-0.01 14:-0.03 15:-0.01 16:0.03 17:0.05 18:0.03 19:-0.01 20:-0.01 
1 1:-0.05 2:-0.04 3:-0.03 4:-0.02 5:0.01 6:0.01 7:0.01 8:-0.01 9:0.02 10:0.05 11:0.05 12:-0.01 13:-0.03 14:-0.01 15:0.03 16:0.05 17:0.03 18:-0.01 19:-0.01 20:-0.02 
1 1:-0.04 2:-0.03 3:-0.02 4:0.01 5:0.01 6:0.01 7:-0.01 8:0.02 9:0.05 10:0.05 11:-0.01 12:-0.03 13:-0.01 14:0.03 15:0.05 16:0.03 17:-0.01 18:-0.01 19:-0.02 
1 1:-0.03 2:-0.02 3:0.01 4:0.01 5:0.01 6:-0.01 7:0.02 8:0.05 9:0.05 10:-0.01 11:-0.03 12:-0.01 13:0.03 14:0.05 15:0.03 16:-0.01 17:-0.01 18:-0.02 
1 1:-0.02 2:0.01 3:0.01 4:0.01 5:-0.01 6:0.02 7:0.05 8:0.05 9:-0.01 10:-0.03 11:-0.01 12:0.03 13:0.05 14:0.03 15:-0.01 16:-0.01 17:-0.02 20:-0.01 
1 1:0.01 2:0.01 3:0.01 4:-0.01 5:0.02 6:0.05 7:0.05 8:-0.01 9:-0.03 10:-0.01 11:0.03 12:0.05 13:0.03 14:-0.01 15:-0.01 16:-0.02 19:-0.01 
1 1:0.01 2:0.01 3:-0.01 4:0.02 5:0.05 6:0.05 7:-0.01 8:-0.03 9:-0.01 10:0.03 11:0.05 12:0.03 13:-0.01 14:-0.01 15:-0.02 18:-0.01 20:-0.01 
1 1:0.01 2:-0.01 3:0.02 4:0.05 5:0.05 6:-0.01 7:-0.03 8:-0.01 9:0.03 10:0.05 11:0.03 12:-0.01 13:-0.01 14:-0.02 17:-0.01 19:-0.01 20:0.01 
1 1:-0.01 2:0.02 3:0.05 4:0.05 5:-0.01 6:-0.03 7:-0.01 8:0.03 9:0.05 10:0.03 11:-0.01 12:-0.01 13:-0.02 16:-0.01 18:-0.01 19:0.01 20:0.11 
1 1:0.02 2:0.05 3:0.05 4:-0.01 5:-0.03 6:-0.01 7:0.03 8:0.05 9:0.03 10:-0.01 11:-0.01 12:-0.02 15:-0.01 17:-0.01 18:0.01 19:0.11 20:0.09 
1 1:0.05 2:0.05 3:-0.01 4:-0.03 5:-0.01 6:0.03 7:0.05 8:0.03 9:-0.01 10:-0.01 11:-0.02 14:-0.01 16:-0.01 17:0.01 18:0.11 19:0.09 20:0.09 
1 1:-0.01 2:0.03 3:0.05 4:0.03 5:-0.01 6:-0.01 7:-0.02 10:-0.01 12:-0.01 13:0.01 14:0.11 15:0.09 16:0.09 17:-0.02 18:-0.03 19:-0.06 
1 1:0.03 2:0.05 3:0.03 4:-0.01 5:-0.01 6:-0.02 9:-0.01 11:-0.01 12:0.01 13:0.11 14:0.09 15:0.09 16:-0.02 17:-0.03 18:-0.06 
1 1:0.05 2:0.03 3:-0.01 4:-0.01 5:-0.02 8:-0.01 10:-0.01 11:0.01 12:0.11 13:0.09 14:0.09 15:-0.02 16:-0.03 17:-0.06 20:0.02 
0.1629287303433086 1:0.03 2:-0.01 3:-0.01 4:-0.02 7:-0.01 9:-0.01 10:0.01 11:0.11 12:0.09 13:0.09 14:-0.02 15:-0.03 16:-0.06 19:0.02 
1 1:-0.01 2:-0.01 3:-0.02 6:-0.01 8:-0.01 9:0.01 10:0.11 11:0.09 12:0.09 13:-0.02 14:-0.03 15:-0.06 18:0.02 20:0.02 
1 1:-0.01 2:-0.02 5:-0.01 7:-0.01 8:0.01 9:0.11 10:0.09 11:0.09 12:-0.02 13:-0.03 14:-0.06 17:0.02 19:0.02 20:0.03 
1 1:-0.02 4:-0.01 6:-0.01 7:0.01 8:0.11 9:0.09 10:0.09 11:-0.02 12:-0.03 13:-0.06 16:0.02 18:0.02 19:0.03 20:0.01 
1 1:-0.01 3:-0.01 4:0.01 5:0.11 6:0.09 7:0.09 8:-0.02 9:-0.03 10:-0.06 13:0.02 15:0.02 16:0.03 17:0.01 18:-0.01 19:0.01 20:0.03 
1 3:0.02 5:0.02 6:0.03 7:0.01 8:-0.01 9:0.01 10:0.03 12:-0.01 13:-0.03 14:-0.03 16:0.01 17:0.02 18:-0.01 19:-0.03 20:-0.01 
1 2:0.02 4:0.02 5:0.03 6:0.01 7:-0.01 8:0.01 9:0.03 11:-0.01 12:-0.03 13:-0.03 15:0.01 16:0.02 17:-0.01 18:-0.03 19:-0.01 20:-0.01 
1 1:0.02 3:0.02 4:0.03 5:0.01 6:-0.01 7:0.01 8:0.03 10:-0.01 11:-0.03 12:-0.03 14:0.01 15:0.02 16:-0.01 17:-0.03 18:-0.01 19:-0.01 20:-0.03 
1 1:0.03 2:0.01 3:-0.01 4:0.01 5:0.03 7:-0.01 8:-0.03 9:-0.03 11:0.01 12:0.02 13:-0.01 14:-0.03 15:-0.01 16:-0.01 17:-0.03 18:-0.02 19:0.02 20:0.03 
1 1:0.01 2:0.03 4:-0.01 5:-0.03 6:-0.03 8:0.01 9:0.02 10:-0.01 11:-0.03 12:-0.01 13:-0.01 14:-0.03 15:-0.02 16:0.02 17:0.03 18:0.01 19:-0.06 20:-0.07 
0.8389693302903111 1:0.03 3:-0.01 4:-0.03 5:-0.03 7:0.01 8:0.02 9:-0.01 10:-0.03 11:-0.01 12:-0.01 13:-0.03 14:-0.02 15:0.02 16:0.03 17:0.01 18:-0.06 19:-0.07 20:-0.07 
1 2:-0.01 3:-0.03 4:-0.03 6:0.01 7:0.02 8:-0.01 9:-0.03 10:-0.01 11:-0.01 12:-0.03 13:-0.02 14:0.02 15:0.03 16:0.01 17:-0.06 18:-0.07 19:-0.07 
1 1:-0.01 2:-0.03 3:-0.03 5:0.01 6:0.02 7:-0.01 8:-0.03 9:-0.01 10:-0.01 11:-0.03 12:-0.02 13:0.02 14:0.03 15:0.01 16:-0.06 17:-0.07 18:-0.07 
1 1:-0.03 2:-0.03 4:0.01 5:0.02 6:-0.01 7:-0.03 8:-0.01 9:-0.01 10:-0.03 11:-0.02 12:0.02 13:0.03 14:0.01 15:-0.06 16:-0.07 17:-0.07 
1 1:-0.03 3:0.01 4:0.02 5:-0.01 6:-0.03 7:-0.01 8:-0.01 9:-0.03 10:-0.02 11:0.02 12:0.03 13:0.01 14:-0.06 15:-0.07 16:-0.07 20:0.01 
1 2:0.01 3:0.02 4:-0.01 5:-0.03 6:-0.01 7:-0.01 8:-0.03 9:-0.02 10:0.02 11:0.03 12:0.01 13:-0.06 14:-0.07 15:-0.07 19:0.01 
1 1:0.01 2:0.02 3:-0.01 4:-0.03 5:-0.01 6:-0.01 7:-0.03 8:-0.02 9:0.02 10:0.03 11:0.01 12:-0.06 13:-0.07 14:-0.07 18:0.01 20:-0.01 
1 1:0.02 2:-0.01 3:-0.03 4:-0.01 5:-0.01 6:-0.03 7:-0.02 8:0.02 9:0.03 10:0.01 11:-0.06 12:-0.07 13:-0.07 17:0.01 19:-0.01 20:-0.02 
1 1:-0.01 2:-0.03 3:-0.01 4:-0.01 5:-0.03 6:-0.02 7:0.02 8:0.03 9:0.01 10:-0.06 11:-0.07 12:-0.07 16:0.01 18:-0.01 19:-0.02 20:-0.02 
1 1:-0.03 2:-0.01 3:-0.01 4:-0.03 5:-0.02 6:0.02 7:0.03 8:0.01 9:-0.06 10:-0.07 11:-0.07 15:0.01 17:-0.01 18:-0.02 19:-0.02 20:-0.02 
1 1:-0.01 2:-0.01 3:-0.03 4:-0.02 5:0.02 6:0.03 7:0.01 8:-0.06 9:-0.07 10:-0.07 14:0.01 16:-0.01 17:-0.02 18:-0.02 19:-0.02 
1 1:-0.01 2:-0.03 3:-0.02 4:0.02 5:0.03 6:0.01 7:-0.06 8:-0.07 9:-0.07 13:0.01 15:-0.01 16:-0.02 17:-0.02 18:-0.02 
1 1:-0.03 2:-0.02 3:0.02 4:0.03 5:0.01 6:-0.06 7:-0.07 8:-0.07 12:0.01 14:-0.01 15:-0.02 16:-0.02 17:-0.02 20:0.01 
1 1:-0.02 2:0.02 3:0.03 4:0.01 5:-0.06 6:-0.07 7:-0.07 11:0.01 13:-0.01 14:-0.02 15:-0.02 16:-0.02 19:0.01 20:0.02 
1 1:0.02 2:0.03 3:0.01 4:-0.06 5:-0.07 6:-0.07 10:0.01 12:-0.01 13:-0.02 14:-0.02 15:-0.02 18:0.01 19:0.02 20:0.01 
1 1:0.03 2:0.01 3:-0.06 4:-0.07 5:-0.07 9:0.01 11:-0.01 12:-0.02 13:-0.02 14:-0.02 17:0.01 18:0.02 19:0.01 20:0.02 
1 1:0.01 2:-0.06 3:-0.07 4:-0.07 8:0.01 10:-0.01 11:-0.02 12:-0.02 13:-0.02 16:0.01 17:0.02 18:0.01 19:0.02 20:0.02 
1 1:-0.06 2:-0.07 3:-0.07 7:0.01 9:-0.01 10:-0.02 11:-0.02 12:-0.02 15:0.01 16:0.02 17:0.01 18:0.02 19:0.02 
1 1:-0.07 2:-0.07 6:0.01 8:-0.01 9:-0.02 10:-0.02 11:-0.02 14:0.01 15:0.02 16:0.01 17:0.02 18:0.02 
-1 1:-0.07 5:0.01 7:-0.01 8:-0.02 9:-0.02 10:-0.02 13:0.01 14:0.02 15:0.01 16:0.02 17:0.02 20:-0.01 
-1 4:0.01 6:-0.01 7:-0.02 8:-0.02 9:-0.02 12:0.01 13:0.02 14:0.01 15:0.02 16:0.02 19:-0.01 
-1 3:0.01 5:-0.01 6:-0.02 7:-0.02 8:-0.02 11:0.01 12:0.02 13:0.01 14:0.02 15:0.02 18:-0.01 20:-0.01 
1 2:0.01 4:-0.01 5:-0.02 6:-0.02 7:-0.02 10:0.01 11:0.02 12:0.01 13:0.02 14:0.02 17:-0.01 19:-0.01 20:-0.02 
1 1:0.01 3:-0.01 4:-0.02 5:-0.02 6:-0.02 9:0.01 10:0.02 11:0.01 12:0.02 13:0.02 16:-0.01 18:-0.01 19:-0.02 
1 2:-0.01 3:-0.02 4:-0.02 5:-0.02 8:0.01 9:0.02 10:0.01 11:0.02 12:0.02 15:-0.01 17:-0.01 18:-0.02 
1 1:-0.01 2:-0.02 3:-0.02 4:-0.02 7:0.01 8:0.02 9:0.01 10:0.02 11:0.02 14:-0.01 16:-0.01 17:-0.02 
1 1:-0.02 2:-0.02 3:-0.02 6:0.01 7:0.02 8:0.01 9:0.02 10:0.02 13:-0.01 15:-0.01 16:-0.02 20:-0.01 
1 1:-0.02 2:-0.02 5:0.01 6:0.02 7:0.01 8:0.02 9:0.02 12:-0.01 14:-0.01 15:-0.02 19:-0.01 20:0.01 
1 1:-0.02 4:0.01 5:0.02 6:0.01 7:0.02 8:0.02 11:-0.01 13:-0.01 14:-0.02 18:-0.01 19:0.01 
1 3:0.01 4:0.02 5:0.01 6:0.02 7:0.02 10:-0.01 12:-0.01 13:-0.02 17:-0.01 18:0.01 20:0.01 
1 2:0.01 3:0.02 4:0.01 5:0.02 6:0.02 9:-0.01 11:-0.01 12:-0.02 16:-0.01 17:0.01 19:0.01 20:-0.07 
1 1:0.01 2:0.02 3:0.01 4:0.02 5:0.02 8:-0.01 10:-0.01 11:-0.02 15:-0.01 16:0.01 18:0.01 19:-0.07 20:-0.08 
1 1:0.02 2:0.01 3:0.02 4:0.02 7:-0.01 9:-0.01 10:-0.02 14:-0.01 15:0.01 17:0.01 18:-0.07 19:-0.08 20:-0.08 
1 1:0.01 2:0.02 3:0.02 6:-0.01 8:-0.01 9:-0.02 13:-0.01 14:0.01 16:0.01 17:-0.07 18:-0.08 19:-0.08 20:-0.02 
1 1:0.02 2:0.02 5:-0.01 7:-0.01 8:-0.02 12:-0.01 13:0.01 15:0.01 16:-0.07 17:-0.08 18:-0.08 19:-0.02 
1 1:0.02 4:-0.01 6:-0.01 7:-0.02 11:-0.01 12:0.01 14:0.01 15:-0.07 16:-0.08 17:-0.08 18:-0.02 20:0.02 
1 3:-0.01 5:-0.01 6:-0.02 10:-0.01 11:0.01 13:0.01 14:-0.07 15:-0.08 16:-0.08 17:-0.02 19:0.02 20:0.01 
1 2:-0.01 4:-0.01 5:-0.02 9:-0.01 10:0.01 12:0.01 13:-0.07 14:-0.08 15:-0.08 16:-0.02 18:0.02 19:0.01 20:0.01 
1 1:-0.01 3:-0.01 4:-0.02 8:-0.01 9:0.01 11:0.01 12:-0.07 13:-0.08 14:-0.08 15:-0.02 17:0.02 18:0.01 19:0.01 
1 2:-0.01 3:-0.02 7:-0.01 8:0.01 10:0.01 11:-0.07 12:-0.08 13:-0.08 14:-0.02 16:0.02 17:0.01 18:0.01 20:-0.01 
1 1:-0.01 2:-0.02 6:-0.01 7:0.01 9:0.01 10:-0.07 11:-0.08 12:-0.08 13:-0.02 15:0.02 16:0.01 17:0.01 19:-0.01 20:-0.02 
1 1:-0.02 5:-0.01 6:0.01 8:0.01 9:-0.07 10:-0.08 11:-0.08 12:-0.02 14:0.02 15:0.01 16:0.01 18:-0.01 19:-0.02 20:-0.01 
1 4:-0.01 5:0.01 7:0.01 8:-0.07 9:-0.08 10:-0.08 11:-0.02 13:0.02 14:0.01 15:0.01 17:-0.01 18:-0.02 19:-0.01 
1 3:-0.01 4:0.01 6:0.01 7:-0.07 8:-0.08 9:-0.08 10:-0.02 12:0.02 13:0.01 14:0.01 16:-0.01 17:-0.02 18:-0.01 20:0.01 
1 2:-0.01 3:0.01 5:0.01 6:-0.07 7:-0.08 8:-0.08 9:-0.02 11:0.02 12:0.01 13:0.01 15:-0.01 16:-0.02 17:-0.01 19:0.01 20:0.01 
1 1:-0.01 2:0.01 4:0.01 5:-0.07 6:-0.08 7:-0.08 8:-0.02 10:0.02 11:0.01 12:0.01 14:-0.01 15:-0.02 16:-0.01 18:0.01 19:0.01 20:0.02 
1 1:0.01 3:0.01 4:-0.07 5:-0.08 6:-0.08 7:-0.02 9:0.02 10:0.01 11:0.01 13:-0.01 14:-0.02 15:-0.01 17:0.01 18:0.01 19:0.02 20:0.01 
1 2:0.01 3:-0.07 4:-0.08 5:-0.08 6:-0.02 8:0.02 9:0.01 10:0.01 12:-0.01 13:-0.02 14:-0.01 16:0.01 17:0.01 18:0.02 19:0.01 20:0.02 
1 1:0.01 2:-0.07 3:-0.08 4:-0.08 5:-0.02 7:0.02 8:0.01 9:0.01 11:-0.01 12:-0.02 13:-0.01 15:0.01 16:0.01 17:0.02 18:0.01 19:0.02 20:0.01 
1 1:-0.07 2:-0.08 3:-0.08 4:-0.02 6:0.02 7:0.01 8:0.01 10:-0.01 11:-0.02 12:-0.01 14:0.01 15:0.01 16:0.02 17:0.01 18:0.02 19:0.01 20:-0.01 
1 1:-0.08 2:-0.08 3:-0.02 5:0.02 6:0.01 7:0.01 9:-0.01 10:-0.02 11:-0.01 13:0.01 14:0.01 15:0.02 16:0.01 17:0.02 18:0.01 19:-0.01 20:-0.01 
1 1:-0.08 2:-0.02 4:0.02 5:0.01 6:0.01 8:-0.01 9:-0.02 10:-0.01 12:0.01 13:0.01 14:0.02 15:0.01 16:0.02 17:0.01 18:-0.01 19:-0.01 20:-0.02 
1 1:-0.02 3:0.02 4:0.01 5:0.01 7:-0.01 8:-0.02 9:-0.01 11:0.01 12:0.01 13:0.02 14:0.01 15:0.02 16:0.01 17:-0.01 18:-0.01 19:-0.02 
1 2:0.02 3:0.01 4:0.01 6:-0.01 7:-0.02 8:-0.01 10:0.01 11:0.01 12:0.02 13:0.01 14:0.02 15:0.01 16:-0.01 17:-0.01 18:-0.02 20:-0.01 
1 1:0.02 2:0.01 3:0.01 5:-0.01 6:-0.02 7:-0.01 9:0.01 10:0.01 11:0.02 12:0.01 13:0.02 14:0.01 15:-0.01 16:-0.01 17:-0.02 19:-0.01 20:0.02 
1 1:0.01 2:0.01 4:-0.01 5:-0.02 6:-0.01 8:0.01 9:0.01 10:0.02 11:0.01 12:0.02 13:0.01 14:-0.01 15:-0.01 16:-0.02 18:-0.01 19:0.02 20:0.01 
1 1:0.01 3:-0.01 4:-0.02 5:-0.01 7:0.01 8:0.01 9:0.02 10:0.01 11:0.02 12:0.01 13:-0.01 14:-0.01 15:-0.02 17:-0.01 18:0.02 19:0.01 20:0.02 
1 2:-0.01 3:-0.02 4:-0.01 6:0.01 7:0.01 8:0.02 9:0.01 10:0.02 11:0.01 12:-0.01 13:-0.01 14:-0.02 16:-0.01 17:0.02 18:0.01 19:0.02 
1 1:-0.01 2:-0.02 3:-0.01 5:0.01 6:0.01 7:0.02 8:0.01 9:0.02 10:0.01 11:-0.01 12:-0.01 13:-0.02 15:-0.01 16:0.02 17:0.01 18:0.02 20:0.01 
1 1:-0.02 2:-0.01 4:0.01 5:0.01 6:0.02 7:0.01 8:0.02 9:0.01 10:-0.01 11:-0.01 12:-0.02 14:-0.01 15:0.02 16:0.01 17:0.02 19:0.01 20:0.01 
1 1:-0.01 3:0.01 4:0.01 5:0.02 6:0.01 7:0.02 8:0.01 9:-0.01 10:-0.01 11:-0.02 13:-0.01 14:0.02 15:0.01 16:0.02 18:0.01 19:0.01 20:0.02 
1 2:0.01 3:0.01 4:0.02 5:0.01 6:0.02 7:0.01 8:-0.01 9:-0.01 10:-0.02 12:-0.01 13:0.02 14:0.01 15:0.02 17:0.01 18:0.01 19:0.02 
1 1:0.01 2:0.01 3:0.02 4:0.01 5:0.02 6:0.01 7:-0.01 8:-0.01 9:-0.02 11:-0.01 12:0.02 13:0.01 14:0.02 16:0.01 17:0.01 18:0.02 20:0.09 
1 1:0.01 2:0.02 3:0.01 4:0.02 5:0.01 6:-0.01 7:-0.01 8:-0.02 10:-0.01 11:0.02 12:0.01 13:0.02 15:0.01 16:0.01 17:0.02 19:0.09 20:0.08 
1 1:0.02 2:0.01 3:0.02 4:0.01 5:-0.01 6:-0.01 7:-0.02 9:-0.01 10:0.02 11:0.01 12:0.02 14:0.01 15:0.01 16:0.02 18:0.09 19:0.08 20:0.11 
1 1:0.01 2:0.02 3:0.01 4:-0.01 5:-0.01 6:-0.02 8:-0.01 9:0.02 10:0.01 11:0.02 13:0.01 14:0.01 15:0.02 17:0.09 18:0.08 19:0.11 20:0.02 
1 1:0.02 2:0.01 3:-0.01 4:-0.01 5:-0.02 7:-0.01 8:0.02 9:0.01 10:0.02 12:0.01 13:0.01 14:0.02 16:0.09 17:0.08 18:0.11 19:0.02 
1 1:0.01 2:-0.01 3:-0.01 4:-0.02 6:-0.01 7:0.02 8:0.01 9:0.02 11:0.01 12:0.01 13:0.02 15:0.09 16:0.08 17:0.11 18:0.02 20:0.01 
1 1:-0.01 2:-0.01 3:-0.02 5:-0.01 6:0.02 7:0.01 8:0.02 10:0.01 11:0.01 12:0.02 14:0.09 15:0.08 16:0.11 17:0.02 19:0.01 20:-0.02 
1 1:-0.01 2:-0.02 4:-0.01 5:0.02 6:0.01 7:0.02 9:0.01 10:0.01 11:0.02 13:0.09 14:0.08 15:0.11 16:0.02 18:0.01 19:-0.02 
1 1:-0.02 3:-0.01 4:0.02 5:0.01 6:0.02 8:0.01 9:0.01 10:0.02 12:0.09 13:0.08 14:0.11 15:0.02 17:0.01 18:-0.02 20:-0.01 
1 2:-0.01 3:0.02 4:0.01 5:0.02 7:0.01 8:0.01 9:0.02 11:0.09 12:0.08 13:0.11 14:0.02 16:0.01 17:-0.02 19:-0.01 
1 1:-0.01 2:0.02 3:0.01 4:0.02 6:0.01 7:0.01 8:0.02 10:0.09 11:0.08 12:0.11 13:0.02 15:0.01 16:-0.02 18:-0.01 20:0.01 
1 1:0.02 2:0.01 3:0.02 5:0.01 6:0.01 7:0.02 9:0.09 10:0.08 11:0.11 12:0.02 14:0.01 15:-0.02 17:-0.01 19:0.01 20:0.02 
1 1:0.01 2:0.02 4:0.01 5:0.01 6:0.02 8:0.09 9:0.08 10:0.11 11:0.02 13:0.01 14:-0.02 16:-0.01 18:0.01 19:0.02 20:0.01 
1 1:0.02 3:0.01 4:0.01 5:0.02 7:0.09 8:0.08 9:0.11 10:0.02 12:0.01 13:-0.02 15:-0.01 17:0.01 18:0.02 19:0.01 20:0.01 
1 2:0.01 3:0.01 4:0.02 6:0.09 7:0.08 8:0.11 9:0.02 11:0.01 12:-0.02 14:-0.01 16:0.01 17:0.02 18:0.01 19:0.01 20:0.01 
1 1:0.01 2:0.01 3:0.02 5:0.09 6:0.08 7:0.11 8:0.02 10:0.01 11:-0.02 13:-0.01 15:0.01 16:0.02 17:0.01 18:0.01 19:0.01 
-1 1:0.01 2:0.02 4:0.09 5:0.08 6:0.11 7:0.02 9:0.01 10:-0.02 12:-0.01 14:0.01 15:0.02 16:0.01 17:0.01 18:0.01 
-1 1:0.02 3:0.09 4:0.08 5:0.11 6:0.02 8:0.01 9:-0.02 11:-0.01 13:0.01 14:0.02 15:0.01 16:0.01 17:0.01 20:-0.01 
-1 2:0.09 3:0.08 4:0.11 5:0.02 7:0.01 8:-0.02 10:-0.01 12:0.01 13:0.02 14:0.01 15:0.01 16:0.01 19:-0.01 20:0.01 
1 1:0.09 2:0.08 3:0.11 4:0.02 6:0.01 7:-0.02 9:-0.01 11:0.01 12:0.02 13:0.01 14:0.01 15:0.01 18:-0.01 19:0.01 20:0.01 
1 1:0.08 2:0.11 3:0.02 5:0.01 6:-0.02 8:-0.01 10:0.01 11:0.02 12:0.01 13:0.01 14:0.01 17:-0.01 18:0.01 19:0.01 
1 1:0.11 2:0.02 4:0.01 5:-0.02 7:-0.01 9:0.01 10:0.02 11:0.01 12:0.01 13:0.01 16:-0.01 17:0.01 18:0.01 
1 1:0.02 3:0.01 4:-0.02 6:-0.01 8:0.01 9:0.02 10:0.01 11:0.01 12:0.01 15:-0.01 16:0.01 17:0.01 
1 2:0.01 3:-0.02 5:-0.01 7:0.01 8:0.02 9:0.01 10:0.01 11:0.01 14:-0.01 15:0.01 16:0.01 20:0.01 
1 1:0.01 2:-0.02 4:-0.01 6:0.01 7:0.02 8:0.01 9:0.01 10:0.01 13:-0.01 14:0.01 15:0.01 19:0.01 20:0.01 
1 1:-0.02 3:-0.01 5:0.01 6:0.02 7:0.01 8:0.01 9:0.01 12:-0.01 13:0.01 14:0.01 18:0.01 19:0.01 20:0.02 
1 2:-0.01 4:0.01 5:0.02 6:0.01 7:0.01 8:0.01 11:-0.01 12:0.01 13:0.01 17:0.01 18:0.01 19:0.02 20:0.01 
1 1:-0.01 3:0.01 4:0.02 5:0.01 6:0.01 7:0.01 10:-0.01 11:0.01 12:0.01 16:0.01 17:0.01 18:0.02 19:0.01 20:-0.01 
1 2:0.01 3:0.02 4:0.01 5:0.01 6:0.01 9:-0.01 10:0.01 11:0.01 15:0.01 16:0.01 17:0.02 18:0.01 19:-0.01 
1 1:0.01 2:0.02 3:0.01 4:0.01 5:0.01 8:-0.01 9:0.01 10:0.01 14:0.01 15:0.01 16:0.02 17:0.01 18:-0.01 20:0.04 
1 1:0.02 2:0.01 3:0.01 4:0.01 7:-0.01 8:0.01 9:0.01 13:0.01 14:0.01 15:0.02 16:0.01 17:-0.01 19:0.04 20:0.04 
1 1:0.01 2:0.01 3:0.01 6:-0.01 7:0.01 8:0.01 12:0.01 13:0.01 14:0.02 15:0.01 16:-0.01 18:0.04 19:0.04 20:0.03 
1 1:0.01 2:0.01 5:-0.01 6:0.01 7:0.01 11:0.01 12:0.01 13:0.02 14:0.01 15:-0.01 17:0.04 18:0.04 19:0.03 20:0.03 
1 1:0.01 4:-0.01 5:0.01 6:0.01 10:0.01 11:0.01 12:0.02 13:0.01 14:-0.01 16:0.04 17:0.04 18:0.03 19:0.03 20:0.03 
1 3:0.01 4:0.01 5:0.02 6:0.01 7:-0.01 9:0.04 10:0.04 11:0.03 12:0.03 13:0.03 14:0.03 15:0.01 16:-0.02 17:-0.05 18:-0.05 19:-0.04 20:-0.01 
0.4995466525641872 2:0.04 3:0.04 4:0.03 5:0.03 6:0.03 7:0.03 8:0.01 9:-0.02 10:-0.05 11:-0.05 12:-0.04 13:-0.01 14:-0.01 15:0.01 17:0.02 18:0.02 19:0.03 20:0.03 
1 1:0.03 2:0.03 3:0.01 5:0.01 8:-0.02 9:-0.02 10:0.01 11:0.01 12:-0.02 13:-0.02 14:-0.02 15:0.04 16:0.02 18:-0.04 19:-0.1 20:-0.08 
0.4249985988916053 1:0.03 2:0.01 4:0.01 7:-0.02 8:-0.02 9:0.01 10:0.01 11:-0.02 12:-0.02 13:-0.02 14:0.04 15:0.02 17:-0.04 18:-0.1 19:-0.08 20:-0.08 
1 1:0.01 3:0.01 6:-0.02 7:-0.02 8:0.01 9:0.01 10:-0.02 11:-0.02 12:-0.02 13:0.04 14:0.02 16:-0.04 17:-0.1 18:-0.08 19:-0.08 
1 2:0.01 5:-0.02 6:-0.02 7:0.01 8:0.01 9:-0.02 10:-0.02 11:-0.02 12:0.04 13:0.02 15:-0.04 16:-0.1 17:-0.08 18:-0.08 
1 1:0.01 4:-0.02 5:-0.02 6:0.01 7:0.01 8:-0.02 9:-0.02 10:-0.02 11:0.04 12:0.02 14:-0.04 15:-0.1 16:-0.08 17:-0.08 20:0.02 
1 3:-0.02 4:-0.02 5:0.01 6:0.01 7:-0.02 8:-0.02 9:-0.02 10:0.04 11:0.02 13:-0.04 14:-0.1 15:-0.08 16:-0.08 19:0.02 20:0.01 
1 2:-0.02 3:-0.02 4:0.01 5:0.01 6:-0.02 7:-0.02 8:-0.02 9:0.04 10:0.02 12:-0.04 13:-0.1 14:-0.08 15:-0.08 18:0.02 19:0.01 20:0.03 
1 1:-0.02 2:-0.02 3:0.01 4:0.01 5:-0.02 6:-0.02 7:-0.02 8:0.04 9:0.02 11:-0.04 12:-0.1 13:-0.08 14:-0.08 17:0.02 18:0.01 19:0.03 20:0.01 
1 1:-0.02 2:0.01 3:0.01 4:-0.02 5:-0.02 6:-0.02 7:0.04 8:0.02 10:-0.04 11:-0.1 12:-0.08 13:-0.08 16:0.02 17:0.01 18:0.03 19:0.01 
1 1:0.01 2:0.01 3:-0.02 4:-0.02 5:-0.02 6:0.04 7:0.02 9:-0.04 10:-0.1 11:-0.08 12:-0.08 15:0.02 16:0.01 17:0.03 18:0.01 20:-0.01 
1 1:0.01 2:-0.02 3:-0.02 4:-0.02 5:0.04 6:0.02 8:-0.04 9:-0.1 10:-0.08 11:-0.08 14:0.02 15:0.01 16:0.03 17:0.01 19:-0.01 20:-0.01 
1 1:-0.02 2:-0.02 3:-0.02 4:0.04 5:0.02 7:-0.04 8:-0.1 9:-0.08 10:-0.08 13:0.02 14:0.01 15:0.03 16:0.01 18:-0.01 19:-0.01 20:-0.02 
1 1:-0.02 2:-0.02 3:0.04 4:0.02 6:-0.04 7:-0.1 8:-0.08 9:-0.08 12:0.02 13:0.01 14:0.03 15:0.01 17:-0.01 18:-0.01 19:-0.02 
1 1:-0.02 2:0.04 3:0.02 5:-0.04 6:-0.1 7:-0.08 8:-0.08 11:0.02 12:0.01 13:0.03 14:0.01 16:-0.01 17:-0.01 18:-0.02 
1 1:0.04 2:0.02 4:-0.04 5:-0.1 6:-0.08 7:-0.08 10:0.02 11:0.01 12:0.03 13:0.01 15:-0.01 16:-0.01 17:-0.02 20:0.01 
1 1:0.02 3:-0.04 4:-0.1 5:-0.08 6:-0.08 9:0.02 10:0.01 11:0.03 12:0.01 14:-0.01 15:-0.01 16:-0.02 19:0.01 20:0.02 
1 2:-0.04 3:-0.1 4:-0.08 5:-0.08 8:0.02 9:0.01 10:0.03 11:0.01 13:-0.01 14:-0.01 15:-0.02 18:0.01 19:0.02 
1 1:-0.04 2:-0.1 3:-0.08 4:-0.08 7:0.02 8:0.01 9:0.03 10:0.01 12:-0.01 13:-0.01 14:-0.02 17:0.01 18:0.02 20:0.01 
1 1:-0.1 2:-0.08 3:-0.08 6:0.02 7:0.01 8:0.03 9:0.01 11:-0.01 12:-0.01 13:-0.02 16:0.01 17:0.02 19:0.01 20:0.01 
1 1:-0.08 2:-0.08 5:0.02 6:0.01 7:0.03 8:0.01 10:-0.01 11:-0.01 12:-0.02 15:0.01 16:0.02 18:0.01 19:0.01 20:0.01 
1 1:-0.08 4:0.02 5:0.01 6:0.03 7:0.01 9:-0.01 10:-0.01 11:-0.02 14:0.01 15:0.02 17:0.01 18:0.01 19:0.01 20:-0.02 
1 3:0.02 4:0.01 5:0.03 6:0.01 8:-0.01 9:-0.01 10:-0.02 13:0.01 14:0.02 16:0.01 17:0.01 18:0.01 19:-0.02 20:-0.03 
1 2:0.02 3:0.01 4:0.03 5:0.01 7:-0.01 8:-0.01 9:-0.02 12:0.01 13:0.02 15:0.01 16:0.01 17:0.01 18:-0.02 19:-0.03 20:-0.01 
1 1:0.02 2:0.01 3:0.03 4:0.01 6:-0.01 7:-0.01 8:-0.02 11:0.01 12:0.02 14:0.01 15:0.01 16:0.01 17:-0.02 18:-0.03 19:-0.01 
1 1:0.01 2:0.03 3:0.01 5:-0.01 6:-0.01 7:-0.02 10:0.01 11:0.02 13:0.01 14:0.01 15:0.01 16:-0.02 17:-0.03 18:-0.01 20:0.02 
1 1:0.03 2:0.01 4:-0.01 5:-0.01 6:-0.02 9:0.01 10:0.02 12:0.01 13:0.01 14:0.01 15:-0.02 16:-0.03 17:-0.01 19:0.02 20:0.03 
-1 1:0.01 3:-0.01 4:-0.01 5:-0.02 8:0.01 9:0.02 11:0.01 12:0.01 13:0.01 14:-0.02 15:-0.03 16:-0.01 18:0.02 19:0.03 20:0.04 
-1 2:-0.01 3:-0.01 4:-0.02 7:0.01 8:0.02 10:0.01 11:0.01 12:0.01 13:-0.02 14:-0.03 15:-0.01 17:0.02 18:0.03 19:0.04 20:0.03 
1 1:-0.01 2:-0.01 3:-0.02 6:0.01 7:0.02 9:0.01 10:0.01 11:0.01 12:-0.02 13:-0.03 14:-0.01 16:0.02 17:0.03 18:0.04 19:0.03 20:0.04 
1 1:-0.01 2:-0.02 5:0.01 6:0.02 8:0.01 9:0.01 10:0.01 11:-0.02 12:-0.03 13:-0.01 15:0.02 16:0.03 17:0.04 18:0.03 19:0.04 20:0.04 
1 1:-0.02 4:0.01 5:0.02 7:0.01 8:0.01 9:0.01 10:-0.02 11:-0.03 12:-0.01 14:0.02 15:0.03 16:0.04 17:0.03 18:0.04 19:0.04 20:0.02 
1 3:0.01 4:0.02 6:0.01 7:0.01 8:0.01 9:-0.02 10:-0.03 11:-0.01 13:0.02 14:0.03 15:0.04 16:0.03 17:0.04 18:0.04 19:0.02 20:0.01 
1 2:0.01 3:0.02 5:0.01 6:0.01 7:0.01 8:-0.02 9:-0.03 10:-0.01 12:0.02 13:0.03 14:0.04 15:0.03 16:0.04 17:0.04 18:0.02 19:0.01 
1 1:0.01 2:0.02 4:0.01 5:0.01 6:0.01 7:-0.02 8:-0.03 9:-0.01 11:0.02 12:0.03 13:0.04 14:0.03 15:0.04 16:0.04 17:0.02 18:0.01 20:0.01 
1 1:0.02 3:0.01 4:0.01 5:0.01 6:-0.02 7:-0.03 8:-0.01 10:0.02 11:0.03 12:0.04 13:0.03 14:0.04 15:0.04 16:0.02 17:0.01 19:0.01 20:-0.01 
1 2:0.01 3:0.01 4:0.01 5:-0.02 6:-0.03 7:-0.01 9:0.02 10:0.03 11:0.04 12:0.03 13:0.04 14:0.04 15:0.02 16:0.01 18:0.01 19:-0.01 20:-0.02 
1 1:0.01 2:0.01 3:0.01 4:-0.02 5:-0.03 6:-0.01 8:0.02 9:0.03 10:0.04 11:0.03 12:0.04 13:0.04 14:0.02 15:0.01 17:0.01 18:-0.01 19:-0.02 
1 1:0.01 2:0.01 3:-0.02 4:-0.03 5:-0.01 7:0.02 8:0.03 9:0.04 10:0.03 11:0.04 12:0.04 13:0.02 14:0.01 16:0.01 17:-0.01 18:-0.02 
1 1:0.01 2:-0.02 3:-0.03 4:-0.01 6:0.02 7:0.03 8:0.04 9:0.03 10:0.04 11:0.04 12:0.02 13:0.01 15:0.01 16:-0.01 17:-0.02 20:0.01 
1 1:-0.02 2:-0.03 3:-0.01 5:0.02 6:0.03 7:0.04 8:0.03 9:0.04 10:0.04 11:0.02 12:0.01 14:0.01 15:-0.01 16:-0.02 19:0.01 20:-0.01 
1 1:-0.03 2:-0.01 4:0.02 5:0.03 6:0.04 7:0.03 8:0.04 9:0.04 10:0.02 11:0.01 13:0.01 14:-0.01 15:-0.02 18:0.01 19:-0.01 
1 1:-0.01 3:0.02 4:0.03 5:0.04 6:0.03 7:0.04 8:0.04 9:0.02 10:0.01 12:0.01 13:-0.01 14:-0.02 17:0.01 18:-0.01 20:0.01 
1 2:0.02 3:0.03 4:0.04 5:0.03 6:0.04 7:0.04 8:0.02 9:0.01 11:0.01 12:-0.01 13:-0.02 16:0.01 17:-0.01 19:0.01 20:0.01 
1 1:0.02 2:0.03 3:0.04 4:0.03 5:0.04 6:0.04 7:0.02 8:0.01 10:0.01 11:-0.01 12:-0.02 15:0.01 16:-0.01 18:0.01 19:0.01 20:0.02 
1 1:0.03 2:0.04 3:0.03 4:0.04 5:0.04 6:0.02 7:0.01 9:0.01 10:-0.01 11:-0.02 14:0.01 15:-0.01 17:0.01 18:0.01 19:0.02 
1 1:0.04 2:0.03 3:0.04 4:0.04 5:0.02 6:0.01 8:0.01 9:-0.01 10:-0.02 13:0.01 14:-0.01 16:0.01 17:0.01 18:0.02 
1 1:0.03 2:0.04 3:0.04 4:0.02 5:0.01 7:0.01 8:-0.01 9:-0.02 12:0.01 13:-0.01 15:0.01 16:0.01 17:0.02 20:-0.01 
1 1:0.04 2:0.04 3:0.02 4:0.01 6:0.01 7:-0.01 8:-0.02 11:0.01 12:-0.01 14:0.01 15:0.01 16:0.02 19:-0.01 20:0.01 
-1 1:0.04 2:0.02 3:0.01 5:0.01 6:-0.01 7:-0.02 10:0.01 11:-0.01 13:0.01 14:0.01 15:0.02 18:-0.01 19:0.01 
-1 1:0.02 2:0.01 4:0.01 5:-0.01 6:-0.02 9:0.01 10:-0.01 12:0.01 13:0.01 14:0.02 17:-0.01 18:0.01 20:0.02 
1 1:0.01 3:0.01 4:-0.01 5:-0.02 8:0.01 9:-0.01 11:0.01 12:0.01 13:0.02 16:-0.01 17:0.01 19:0.02 20:0.01 
1 2:0.01 3:-0.01 4:-0.02 7:0.01 8:-0.01 10:0.01 11:0.01 12:0.02 15:-0.01 16:0.01 18:0.02 19:0.01 20:0.01 
1 1:0.01 2:-0.01 3:-0.02 6:0.01 7:-0.01 9:0.01 10:0.01 11:0.02 14:-0.01 15:0.01 17:0.02 18:0.01 19:0.01 
1 1:-0.01 2:-0.02 5:0.01 6:-0.01 8:0.01 9:0.01 10:0.02 13:-0.01 14:0.01 16:0.02 17:0.01 18:0.01 20:-0.01 
1 1:-0.02 4:0.01 5:-0.01 7:0.01 8:0.01 9:0.02 12:-0.01 13:0.01 15:0.02 16:0.01 17:0.01 19:-0.01 20:0.01 
1 3:0.01 4:-0.01 6:0.01 7:0.01 8:0.02 11:-0.01 12:0.01 14:0.02 15:0.01 16:0.01 18:-0.01 19:0.01 
1 2:0.01 3:-0.01 5:0.01 6:0.01 7:0.02 10:-0.01 11:0.01 13:0.02 14:0.01 15:0.01 17:-0.01 18:0.01 20:0.01 
1 1:0.01 2:-0.01 4:0.01 5:0.01 6:0.02 9:-0.01 10:0.01 12:0.02 13:0.01 14:0.01 16:-0.01 17:0.01 19:0.01 20:0.02 
1 1:-0.01 3:0.01 4:0.01 5:0.02 8:-0.01 9:0.01 11:0.02 12:0.01 13:0.01 15:-0.01 16:0.01 18:0.01 19:0.02 20:0.01 
1 2:0.01 3:0.01 4:0.02 7:-0.01 8:0.01 10:0.02 11:0.01 12:0.01 14:-0.01 15:0.01 17:0.01 18:0.02 19:0.01 20:-0.01 
1 1:0.01 2:0.01 3:0.02 6:-0.01 7:0.01 9:0.02 10:0.01 11:0.01 13:-0.01 14:0.01 16:0.01 17:0.02 18:0.01 19:-0.01 20:0.01 
1 1:0.01 2:0.02 5:-0.01 6:0.01 8:0.02 9:0.01 10:0.01 12:-0.01 13:0.01 15:0.01 16:0.02 17:0.01 18:-0.01 19:0.01 20:-0.01 
1 1:0.02 4:-0.01 5:0.01 7:0.02 8:0.01 9:0.01 11:-0.01 12:0.01 14:0.01 15:0.02 16:0.01 17:-0.01 18:0.01 19:-0.01 
1 3:-0.01 4:0.01 6:0.02 7:0.01 8:0.01 10:-0.01 11:0.01 13:0.01 14:0.02 15:0.01 16:-0.01 17:0.01 18:-0.01 20:-0.14 
1 2:-0.01 3:0.01 5:0.02 6:0.01 7:0.01 9:-0.01 10:0.01 12:0.01 13:0.02 14:0.01 15:-0.01 16:0.01 17:-0.01 19:-0.14 20:-0.12 
1 1:-0.01 2:0.01 4:0.02 5:0.01 6:0.01 8:-0.01 9:0.01 11:0.01 12:0.02 13:0.01 14:-0.01 15:0.01 16:-0.01 18:-0.14 19:-0.12 20:-0.12 
-1 1:0.01 3:0.02 4:0.01 5:0.01 7:-0.01 8:0.01 10:0.01 11:0.02 12:0.01 13:-0.01 14:0.01 15:-0.01 17:-0.14 18:-0.12 19:-0.12 
-1 2:0.02 3:0.01 4:0.01 6:-0.01 7:0.01 9:0.01 10:0.02 11:0.01 12:-0.01 13:0.01 14:-0.01 16:-0.14 17:-0.12 18:-0.12 20:0.01 
-1 1:0.02 2:0.01 3:0.01 5:-0.01 6:0.01 8:0.01 9:0.02 10:0.01 11:-0.01 12:0.01 13:-0.01 15:-0.14 16:-0.12 17:-0.12 19:0.01 
-1 1:0.01 2:0.01 4:-0.01 5:0.01 7:0.01 8:0.02 9:0.01 10:-0.01 11:0.01 12:-0.01 14:-0.14 15:-0.12 16:-0.12 18:0.01 20:-0.01 
-1 1:0.01 3:-0.01 4:0.01 6:0.01 7:0.02 8:0.01 9:-0.01 10:0.01 11:-0.01 13:-0.14 14:-0.12 15:-0.12 17:0.01 19:-0.01 20:-0.02 
-1 2:-0.01 3:0.01 5:0.01 6:0.02 7:0.01 8:-0.01 9:0.01 10:-0.01 12:-0.14 13:-0.12 14:-0.12 16:0.01 18:-0.01 19:-0.02 20:-0.01 
-1 1:-0.01 2:0.01 4:0.01 5:0.02 6:0.01 7:-0.01 8:0.01 9:-0.01 11:-0.14 12:-0.12 13:-0.12 15:0.01 17:-0.01 18:-0.02 19:-0.01 
-1 1:0.01 3:0.01 4:0.02 5:0.01 6:-0.01 7:0.01 8:-0.01 10:-0.14 11:-0.12 12:-0.12 14:0.01 16:-0.01 17:-0.02 18:-0.01 
-1 2:0.01 3:0.02 4:0.01 5:-0.01 6:0.01 7:-0.01 9:-0.14 10:-0.12 11:-0.12 13:0.01 15:-0.01 16:-0.02 17:-0.01 
-1 1:0.01 2:0.02 3:0.01 4:-0.01 5:0.01 6:-0.01 8:-0.14 9:-0.12 10:-0.12 12:0.01 14:-0.01 15:-0.02 16:-0.01 20:0.01 
-1 1:0.02 2:0.01 3:-0.01 4:0.01 5:-0.01 7:-0.14 8:-0.12 9:-0.12 11:0.01 13:-0.01 14:-0.02 15:-0.01 19:0.01 20:0.01 
-1 1:0.01 2:-0.01 3:0.01 4:-0.01 6:-0.14 7:-0.12 8:-0.12 10:0.01 12:-0.01 13:-0.02 14:-0.01 18:0.01 19:0.01 20:0.01 
-1 1:-0.01 2:0.01 3:-0.01 5:-0.14 6:-0.12 7:-0.12 9:0.01 11:-0.01 12:-0.02 13:-0.01 17:0.01 18:0.01 19:0.01 20:-0.01 
-1 1:0.01 2:-0.01 4:-0.14 5:-0.12 6:-0.12 8:0.01 10:-0.01 11:-0.02 12:-0.01 16:0.01 17:0.01 18:0.01 19:-0.01 20:-0.03 
-1 1:-0.01 3:-0.14 4:-0.12 5:-0.12 7:0.01 9:-0.01 10:-0.02 11:-0.01 15:0.01 16:0.01 17:0.01 18:-0.01 19:-0.03 20:-0.01 
-1 2:-0.14 3:-0.12 4:-0.12 6:0.01 8:-0.01 9:-0.02 10:-0.01 14:0.01 15:0.01 16:0.01 17:-0.01 18:-0.03 19:-0.01 
-1 1:-0.14 2:-0.12 3:-0.12 5:0.01 7:-0.01 8:-0.02 9:-0.01 13:0.01 14:0.01 15:0.01 16:-0.01 17:-0.03 18:-0.01 
-1 1:-0.12 2:-0.12 4:0.01 6:-0.01 7:-0.02 8:-0.01 12:0.01 13:0.01 14:0.01 15:-0.01 16:-0.03 17:-0.01 
-1 1:-0.12 3:0.01 5:-0.01 6:-0.02 7:-0.01 11:0.01 12:0.01 13:0.01 14:-0.01 15:-0.03 16:-0.01 20:-0.01 
-1 2:0.01 4:-0.01 5:-0.02 6:-0.01 10:0.01 11:0.01 12:0.01 13:-0.01 14:-0.03 15:-0.01 19:-0.01 20:-0.01 
-1 1:0.01 3:-0.01 4:-0.02 5:-0.01 9:0.01 10:0.01 11:0.01 12:-0.01 13:-0.03 14:-0.01 18:-0.01 19:-0.01 20:-0.02 
-1 2:-0.01 3:-0.02 4:-0.01 8:0.01 9:0.01 10:0.01 11:-0.01 12:-0.03 13:-0.01 17:-0.01 18:-0.01 19:-0.02 
-1 1:-0.01 2:-0.02 3:-0.01 7:0.01 8:0.01 9:0.01 10:-0.01 11:-0.03 12:-0.01 16:-0.01 17:-0.01 18:-0.02 20:0.01 
-1 1:-0.02 2:-0.01 6:0.01 7:0.01 8:0.01 9:-0.01 10:-0.03 11:-0.01 15:-0.01 16:-0.01 17:-0.02 19:0.01 20:0.03 
-1 1:-0.01 5:0.01 6:0.01 7:0.01 8:-0.01 9:-0.03 10:-0.01 14:-0.01 15:-0.01 16:-0.02 18:0.01 19:0.03 20:0.03 
-1 4:0.01 5:0.01 6:0.01 7:-0.01 8:-0.03 9:-0.01 13:-0.01 14:-0.01 15:-0.02 17:0.01 18:0.03 19:0.03 20:0.04 
-1 3:0.01 4:0.01 5:0.01 6:-0.01 7:-0.03 8:-0.01 12:-0.01 13:-0.01 14:-0.02 16:0.01 17:0.03 18:0.03 19:0.04 20:0.01 
-1 1:-0.03 2:-0.01 6:-0.01 7:-0.01 8:-0.02 10:0.01 11:0.03 12:0.03 13:0.04 14:0.01 15:0.01 16:-0.01 17:-0.01 18:-0.01 19:-0.03 20:-0.01 
-1 1:-0.01 5:-0.01 6:-0.01 7:-0.02 9:0.01 10:0.03 11:0.03 12:0.04 13:0.01 14:0.01 15:-0.01 16:-0.01 17:-0.01 18:-0.03 19:-0.01 20:-0.02 
-1 4:-0.01 5:-0.01 6:-0.02 8:0.01 9:0.03 10:0.03 11:0.04 12:0.01 13:0.01 14:-0.01 15:-0.01 16:-0.01 17:-0.03 18:-0.01 19:-0.02 20:-0.02 
-1 3:-0.01 4:-0.01 5:-0.02 7:0.01 8:0.03 9:0.03 10:0.04 11:0.01 12:0.01 13:-0.01 14:-0.01 15:-0.01 16:-0.03 17:-0.01 18:-0.02 19:-0.02 
-1 2:-0.01 3:-0.01 4:-0.02 6:0.01 7:0.03 8:0.03 9:0.04 10:0.01 11:0.01 12:-0.01 13:-0.01 14:-0.01 15:-0.03 16:-0.01 17:-0.02 18:-0.02 20:0.01 
-1 1:-0.01 2:-0.01 3:-0.02 5:0.01 6:0.03 7:0.03 8:0.04 9:0.01 10:0.01 11:-0.01 12:-0.01 13:-0.01 14:-0.03 15:-0.01 16:-0.02 17:-0.02 19:0.01 20:0.01 
-1 1:-0.01 2:-0.02 4:0.01 5:0.03 6:0.03 7:0.04 8:0.01 9:0.01 10:-0.01 11:-0.01 12:-0.01 13:-0.03 14:-0.01 15:-0.02 16:-0.02 18:0.01 19:0.01 20:0.01 
-1 1:-0.02 3:0.01 4:0.03 5:0.03 6:0.04 7:0.01 8:0.01 9:-0.01 10:-0.01 11:-0.01 12:-0.03 13:-0.01 14:-0.02 15:-0.02 17:0.01 18:0.01 19:0.01 20:0.01 
-1 1:0.03 2:0.04 3:0.01 4:0.01 5:-0.01 6:-0.01 7:-0.01 8:-0.03 9:-0.01 10:-0.02 11:-0.02 13:0.01 14:0.01 15:0.01 16:0.01 18:0.01 19:0.01 20:0.01 
-1 1:0.04 2:0.01 3:0.01 4:-0.01 5:-0.01 6:-0.01 7:-0.03 8:-0.01 9:-0.02 10:-0.02 12:0.01 13:0.01 14:0.01 15:0.01 17:0.01 18:0.01 19:0.01 
-1 1:0.01 2:0.01 3:-0.01 4:-0.01 5:-0.01 6:-0.03 7:-0.01 8:-0.02 9:-0.02 11:0.01 12:0.01 13:0.01 14:0.01 16:0.01 17:0.01 18:0.01 20:-0.01 
-1 1:0.01 2:-0.01 3:-0.01 4:-0.01 5:-0.03 6:-0.01 7:-0.02 8:-0.02 10:0.01 11:0.01 12:0.01 13:0.01 15:0.01 16:0.01 17:0.01 19:-0.01 20:-0.01 
-1 1:-0.01 2:-0.01 3:-0.01 4:-0.03 5:-0.01 6:-0.02 7:-0.02 9:0.01 10:0.01 11:0.01 12:0.01 14:0.01 15:0.01 16:0.01 18:-0.01 19:-0.01 20:-0.01 
-1 1:-0.01 2:-0.01 3:-0.03 4:-0.01 5:-0.02 6:-0.02 8:0.01 9:0.01 10:0.01 11:0.01 13:0.01 14:0.01 15:0.01 17:-0.01 18:-0.01 19:-0.01 20:-0.01 
-1 1:-0.01 2:-0.03 3:-0.01 4:-0.02 5:-0.02 7:0.01 8:0.01 9:0.01 10:0.01 12:0.01 13:0.01 14:0.01 16:-0.01 17:-0.01 18:-0.01 19:-0.01 
-1 1:-0.03 2:-0.01 3:-0.02 4:-0.02 6:0.01 7:0.01 8:0.01 9:0.01 11:0.01 12:0.01 13:0.01 15:-0.01 16:-0.01 17:-0.01 18:-0.01 
-1 1:-0.01 2:-0.02 3:-0.02 5:0.01 6:0.01 7:0.01 8:0.01 10:0.01 11:0.01 12:0.01 14:-0.01 15:-0.01 16:-0.01 17:-0.01 
-1 1:-0.02 2:-0.02 4:0.01 5:0.01 6:0.01 7:0.01 9:0.01 10:0.01 11:0.01 13:-0.01 14:-0.01 15:-0.01 16:-0.01 20:0.02 
-1 1:-0.02 3:0.01 4:0.01 5:0.01 6:0.01 8:0.01 9:0.01 10:0.01 12:-0.01 13:-0.01 14:-0.01 15:-0.01 19:0.02 20:0.01 
-1 2:0.01 3:0.01 4:0.01 5:0.01 7:0.01 8:0.01 9:0.01 11:-0.01 12:-0.01 13:-0.01 14:-0.01 18:0.02 19:0.01 20:0.01 
-1 2:-0.01 3:-0.01 4:-0.01 5:-0.01 9:0.02 10:0.01 11:0.01 12:0.01 13:0.02 15:-0.01 16:0.01 19:-0.01 
-1 1:-0.01 2:-0.01 3:-0.01 4:-0.01 8:0.02 9:0.01 10:0.01 11:0.01 12:0.02 14:-0.01 15:0.01 18:-0.01 20:0.01 
-1 1:0.01 2:0.01 3:0.01 4:0.02 6:-0.01 7:0.01 10:-0.01 12:0.01 13:-0.01 18:-0.01 
-1 1:0.01 2:0.01 3:0.02 5:-0.01 6:0.01 9:-0.01 11:0.01 12:-0.01 17:-0.01 20:0.01 
-1 1:0.01 2:0.02 4:-0.01 5:0.01 8:-0.01 10:0.01 11:-0.01 16:-0.01 19:0.01 20:0.01 
-1 1:0.02 3:-0.01 4:0.01 7:-0.01 9:0.01 10:-0.01 15:-0.01 18:0.01 19:0.01 20:0.02 
-1 2:-0.01 3:0.01 6:-0.01 8:0.01 9:-0.01 14:-0.01 17:0.01 18:0.01 19:0.02 20:0.01 
1 1:0.01 2:0.01 3:0.02 4:0.01 5:0.01 7:0.01 12:-0.01 14:-0.01 15:0.01 16:0.01 17:0.03 18:0.02 19:0.01 20:-0.02 
1 1:0.01 2:0.02 3:0.01 4:0.01 6:0.01 11:-0.01 13:-0.01 14:0.01 15:0.01 16:0.03 17:0.02 18:0.01 19:-0.02 20:0.03 
1 1:0.01 3:0.01 8:-0.01 10:-0.01 11:0.01 12:0.01 13:0.03 14:0.02 15:0.01 16:-0.02 17:0.03 18:0.04 19:0.04 20:-0.01 
1 2:0.01 7:-0.01 9:-0.01 10:0.01 11:0.01 12:0.03 13:0.02 14:0.01 15:-0.02 16:0.03 17:0.04 18:0.04 19:-0.01 
1 1:0.01 6:-0.01 8:-0.01 9:0.01 10:0.01 11:0.03 12:0.02 13:0.01 14:-0.02 15:0.03 16:0.04 17:0.04 18:-0.01 
1 5:-0.01 7:-0.01 8:0.01 9:0.01 10:0.03 11:0.02 12:0.01 13:-0.02 14:0.03 15:0.04 16:0.04 17:-0.01 20:-0.01 
1 4:-0.01 6:-0.01 7:0.01 8:0.01 9:0.03 10:0.02 11:0.01 12:-0.02 13:0.03 14:0.04 15:0.04 16:-0.01 19:-0.01 
1 3:-0.01 5:-0.01 6:0.01 7:0.01 8:0.03 9:0.02 10:0.01 11:-0.02 12:0.03 13:0.04 14:0.04 15:-0.01 18:-0.01 20:-0.01 
1 2:-0.01 4:-0.01 5:0.01 6:0.01 7:0.03 8:0.02 9:0.01 10:-0.02 11:0.03 12:0.04 13:0.04 14:-0.01 17:-0.01 19:-0.01 20:-0.02 
1 1:-0.01 3:-0.01 4:0.01 5:0.01 6:0.03 7:0.02 8:0.01 9:-0.02 10:0.03 11:0.04 12:0.04 13:-0.01 16:-0.01 18:-0.01 19:-0.02 20:-0.02 
1 2:-0.01 3:0.01 4:0.01 5:0.03 6:0.02 7:0.01 8:-0.02 9:0.03 10:0.04 11:0.04 12:-0.01 15:-0.01 17:-0.01 18:-0.02 19:-0.02 20:-0.02 
1 1:-0.01 2:0.01 3:0.01 4:0.03 5:0.02 6:0.01 7:-0.02 8:0.03 9:0.04 10:0.04 11:-0.01 14:-0.01 16:-0.01 17:-0.02 18:-0.02 19:-0.02 20:-0.01 
1 1:0.01 2:0.01 3:0.03 4:0.02 5:0.01 6:-0.02 7:0.03 8:0.04 9:0.04 10:-0.01 13:-0.01 15:-0.01 16:-0.02 17:-0.02 18:-0.02 19:-0.01 20:-0.01 
1 1:0.01 2:0.03 3:0.02 4:0.01 5:-0.02 6:0.03 7:0.04 8:0.04 9:-0.01 12:-0.01 14:-0.01 15:-0.02 16:-0.02 17:-0.02 18:-0.01 19:-0.01 20:-0.02 
-1 1:-0.02 3:-0.01 4:0.02 5:0.01 6:0.02 7:-0.01 8:-0.01 9:-0.01 12:0.01 13:0.01 16:-0.02 17:-0.05 18:-0.03 19:0.02 20:0.08 
-1 2:-0.01 3:0.02 4:0.01 5:0.02 6:-0.01 7:-0.01 8:-0.01 11:0.01 12:0.01 15:-0.02 16:-0.05 17:-0.03 18:0.02 19:0.08 20:0.05 
1 1:0.02 2:0.01 3:0.02 4:-0.01 5:-0.01 6:-0.01 9:0.01 10:0.01 13:-0.02 14:-0.05 15:-0.03 16:0.02 17:0.08 18:0.05 19:0.01 20:-0.03 
1 1:0.01 2:0.02 3:-0.01 4:-0.01 5:-0.01 8:0.01 9:0.01 12:-0.02 13:-0.05 14:-0.03 15:0.02 16:0.08 17:0.05 18:0.01 19:-0.03 
1 1:0.02 2:-0.01 3:-0.01 4:-0.01 7:0.01 8:0.01 11:-0.02 12:-0.05 13:-0.03 14:0.02 15:0.08 16:0.05 17:0.01 18:-0.03 
1 1:-0.01 2:-0.01 3:-0.01 6:0.01 7:0.01 10:-0.02 11:-0.05 12:-0.03 13:0.02 14:0.08 15:0.05 16:0.01 17:-0.03 20:-0.01 
1 2:0.01 3:0.01 6:-0.02 7:-0.05 8:-0.03 9:0.02 10:0.08 11:0.05 12:0.01 13:-0.03 16:-0.01 18:-0.01 20:-0.01 
1 2:-0.02 3:-0.05 4:-0.03 5:0.02 6:0.08 7:0.05 8:0.01 9:-0.03 12:-0.01 14:-0.01 16:-0.01 17:0.01 18:0.01 20:-0.01 
1 1:-0.02 2:-0.05 3:-0.03 4:0.02 5:0.08 6:0.05 7:0.01 8:-0.03 11:-0.01 13:-0.01 15:-0.01 16:0.01 17:0.01 19:-0.01 20:-0.02 
-1 1:-0.02 2:-0.01 3:0.01 7:0.01 8:0.01 10:0.01 11:-0.01 12:-0.01 13:-0.01 14:-0.01 15:-0.02 16:-0.01 17:-0.07 18:-0.05 19:-0.05 20:-0.02 
-1 1:-0.01 2:0.01 6:0.01 7:0.01 9:0.01 10:-0.01 11:-0.01 12:-0.01 13:-0.01 14:-0.02 15:-0.01 16:-0.07 17:-0.05 18:-0.05 19:-0.02 
-1 1:0.01 5:0.01 6:0.01 8:0.01 9:-0.01 10:-0.01 11:-0.01 12:-0.01 13:-0.02 14:-0.01 15:-0.07 16:-0.05 17:-0.05 18:-0.02 20:0.01 
-1 4:0.01 5:0.01 7:0.01 8:-0.01 9:-0.01 10:-0.01 11:-0.01 12:-0.02 13:-0.01 14:-0.07 15:-0.05 16:-0.05 17:-0.02 19:0.01 20:0.02 
-1 3:0.01 4:0.01 6:0.01 7:-0.01 8:-0.01 9:-0.01 10:-0.01 11:-0.02 12:-0.01 13:-0.07 14:-0.05 15:-0.05 16:-0.02 18:0.01 19:0.02 20:0.01 
-1 2:0.01 3:0.01 5:0.01 6:-0.01 7:-0.01 8:-0.01 9:-0.01 10:-0.02 11:-0.01 12:-0.07 13:-0.05 14:-0.05 15:-0.02 17:0.01 18:0.02 19:0.01 20:0.01 
-1 1:0.01 2:0.01 4:0.01 5:-0.01 6:-0.01 7:-0.01 8:-0.01 9:-0.02 10:-0.01 11:-0.07 12:-0.05 13:-0.05 14:-0.02 16:0.01 17:0.02 18:0.01 19:0.01 20:0.01 
-1 1:0.01 3:0.01 4:-0.01 5:-0.01 6:-0.01 7:-0.01 8:-0.02 9:-0.01 10:-0.07 11:-0.05 12:-0.05 13:-0.02 15:0.01 16:0.02 17:0.01 18:0.01 19:0.01 
-1 2:0.01 3:-0.01 4:-0.01 5:-0.01 6:-0.01 7:-0.02 8:-0.01 9:-0.07 10:-0.05 11:-0.05 12:-0.02 14:0.01 15:0.02 16:0.01 17:0.01 18:0.01 20:-0.01 
-1 1:0.01 2:-0.01 3:-0.01 4:-0.01 5:-0.01 6:-0.02 7:-0.01 8:-0.07 9:-0.05 10:-0.05 11:-0.02 13:0.01 14:0.02 15:0.01 16:0.01 17:0.01 19:-0.01 20:-0.01 
-1 1:-0.01 2:-0.01 3:-0.01 4:-0.01 5:-0.02 6:-0.01 7:-0.07 8:-0.05 9:-0.05 10:-0.02 12:0.01 13:0.02 14:0.01 15:0.01 16:0.01 18:-0.01 19:-0.01 
-1 1:-0.01 2:-0.01 3:-0.01 4:-0.02 5:-0.01 6:-0.07 7:-0.05 8:-0.05 9:-0.02 11:0.01 12:0.02 13:0.01 14:0.01 15:0.01 17:-0.01 18:-0.01 
-1 1:-0.01 2:-0.01 3:-0.02 4:-0.01 5:-0.07 6:-0.05 7:-0.05 8:-0.02 10:0.01 11:0.02 12:0.01 13:0.01 14:0.01 16:-0.01 17:-0.01 
-1 1:-0.01 2:-0.02 3:-0.01 4:-0.07 5:-0.05 6:-0.05 7:-0.02 9:0.01 10:0.02 11:0.01 12:0.01 13:0.01 15:-0.01 16:-0.01 
-1 1:-0.02 2:-0.01 3:-0.07 4:-0.05 5:-0.05 6:-0.02 8:0.01 9:0.02 10:0.01 11:0.01 12:0.01 14:-0.01 15:-0.01 20:-0.01 
-1 1:-0.01 2:-0.07 3:-0.05 4:-0.05 5:-0.02 7:0.01 8:0.02 9:0.01 10:0.01 11:0.01 13:-0.01 14:-0.01 19:-0.01 20:-0.01 
-1 1:-0.07 2:-0.05 3:-0.05 4:-0.02 6:0.01 7:0.02 8:0.01 9:0.01 10:0.01 12:-0.01 13:-0.01 18:-0.01 19:-0.01 
-1 1:-0.05 2:-0.05 3:-0.02 5:0.01 6:0.02 7:0.01 8:0.01 9:0.01 11:-0.01 12:-0.01 17:-0.01 18:-0.01 
-1 1:-0.05 2:-0.02 4:0.01 5:0.02 6:0.01 7:0.01 8:0.01 10:-0.01 11:-0.01 16:-0.01 17:-0.01 
-1 1:-0.02 3:0.01 4:0.02 5:0.01 6:0.01 7:0.01 9:-0.01 10:-0.01 15:-0.01 16:-0.01 20:0.01 
-1 2:0.01 3:0.02 4:0.01 5:0.01 6:0.01 8:-0.01 9:-0.01 14:-0.01 15:-0.01 19:0.01 20:0.01 
-1 1:0.01 2:0.02 3:0.01 4:0.01 5:0.01 7:-0.01 8:-0.01 13:-0.01 14:-0.01 18:0.01 19:0.01 20:0.01 
-1 1:0.02 2:0.01 3:0.01 4:0.01 6:-0.01 7:-0.01 12:-0.01 13:-0.01 17:0.01 18:0.01 19:0.01 20:0.01 
-1 1:0.01 2:0.01 3:0.01 5:-0.01 6:-0.01 11:-0.01 12:-0.01 16:0.01 17:0.01 18:0.01 19:0.01 
-1 1:0.01 2:0.01 4:-0.01 5:-0.01 10:-0.01 11:-0.01 15:0.01 16:0.01 17:0.01 18:0.01 20:0.01 
-1 1:0.01 3:-0.01 4:-0.01 9:-0.01 10:-0.01 14:0.01 15:0.01 16:0.01 17:0.01 19:0.01 20:0.01 
-1 2:-0.01 3:-0.01 8:-0.01 9:-0.01 13:0.01 14:0.01 15:0.01 16:0.01 18:0.01 19:0.01 20:0.01 
-1 1:-0.01 2:-0.01 7:-0.01 8:-0.01 12:0.01 13:0.01 14:0.01 15:0.01 17:0.01 18:0.01 19:0.01 20:0.01 
-1 2:-0.01 3:-0.01 7:0.01 8:0.01 9:0.01 10:0.01 12:0.01 13:0.01 14:0.01 15:0.01 16:-0.02 17:-0.07 18:-0.06 19:-0.06 20:0.01 
-1 1:-0.01 2:-0.01 6:0.01 7:0.01 8:0.01 9:0.01 11:0.01 12:0.01 13:0.01 14:0.01 15:-0.02 16:-0.07 17:-0.06 18:-0.06 19:0.01 
-1 1:-0.01 5:0.01 6:0.01 7:0.01 8:0.01 10:0.01 11:0.01 12:0.01 13:0.01 14:-0.02 15:-0.07 16:-0.06 17:-0.06 18:0.01 
-1 4:0.01 5:0.01 6:0.01 7:0.01 9:0.01 10:0.01 11:0.01 12:0.01 13:-0.02 14:-0.07 15:-0.06 16:-0.06 17:0.01 20:-0.01 
-1 3:0.01 4:0.01 5:0.01 6:0.01 8:0.01 9:0.01 10:0.01 11:0.01 12:-0.02 13:-0.07 14:-0.06 15:-0.06 16:0.01 19:-0.01 
-1 2:0.01 3:0.01 4:0.01 5:0.01 7:0.01 8:0.01 9:0.01 10:0.01 11:-0.02 12:-0.07 13:-0.06 14:-0.06 15:0.01 18:-0.01 20:-0.01 
-1 1:0.01 2:0.01 3:0.01 4:0.01 6:0.01 7:0.01 8:0.01 9:0.01 10:-0.02 11:-0.07 12:-0.06 13:-0.06 14:0.01 17:-0.01 19:-0.01 20:-0.01 
-1 1:0.01 2:0.01 3:0.01 5:0.01 6:0.01 7:0.01 8:0.01 9:-0.02 10:-0.07 11:-0.06 12:-0.06 13:0.01 16:-0.01 18:-0.01 19:-0.01 
-1 1:0.01 2:0.01 4:0.01 5:0.01 6:0.01 7:0.01 8:-0.02 9:-0.07 10:-0.06 11:-0.06 12:0.01 15:-0.01 17:-0.01 18:-0.01 20:0.01 
-1 1:0.01 3:0.01 4:0.01 5:0.01 6:0.01 7:-0.02 8:-0.07 9:-0.06 10:-0.06 11:0.01 14:-0.01 16:-0.01 17:-0.01 19:0.01 20:0.01 
-1 2:0.01 3:0.01 4:0.01 5:0.01 6:-0.02 7:-0.07 8:-0.06 9:-0.06 10:0.01 13:-0.01 15:-0.01 16:-0.01 18:0.01 19:0.01 
-1 1:0.01 2:0.01 3:0.01 4:0.01 5:-0.02 6:-0.07 7:-0.06 8:-0.06 9:0.01 12:-0.01 14:-0.01 15:-0.01 17:0.01 18:0.01 20:0.02 
-1 1:0.01 2:0.01 3:0.01 4:-0.02 5:-0.07 6:-0.06 7:-0.06 8:0.01 11:-0.01 13:-0.01 14:-0.01 16:0.01 17:0.01 19:0.02 20:0.02 
-1 1:0.01 2:0.01 3:-0.02 4:-0.07 5:-0.06 6:-0.06 7:0.01 10:-0.01 12:-0.01 13:-0.01 15:0.01 16:0.01 18:0.02 19:0.02 20:0.03 
-1 1:0.01 2:-0.02 3:-0.07 4:-0.06 5:-0.06 6:0.01 9:-0.01 11:-0.01 12:-0.01 14:0.01 15:0.01 17:0.02 18:0.02 19:0.03 20:0.01 
-1 1:-0.02 2:-0.07 3:-0.06 4:-0.06 5:0.01 8:-0.01 10:-0.01 11:-0.01 13:0.01 14:0.01 16:0.02 17:0.02 18:0.03 19:0.01 
-1 1:-0.07 2:-0.06 3:-0.06 4:0.01 7:-0.01 9:-0.01 10:-0.01 12:0.01 13:0.01 15:0.02 16:0.02 17:0.03 18:0.01 20:-0.02 
-1 1:-0.06 2:-0.06 3:0.01 6:-0.01 8:-0.01 9:-0.01 11:0.01 12:0.01 14:0.02 15:0.02 16:0.03 17:0.01 19:-0.02 20:-0.01 
-1 1:-0.06 2:0.01 5:-0.01 7:-0.01 8:-0.01 10:0.01 11:0.01 13:0.02 14:0.02 15:0.03 16:0.01 18:-0.02 19:-0.01 
-1 1:0.01 4:-0.01 6:-0.01 7:-0.01 9:0.01 10:0.01 12:0.02 13:0.02 14:0.03 15:0.01 17:-0.02 18:-0.01 20:0.01 
-1 3:-0.01 5:-0.01 6:-0.01 8:0.01 9:0.01 11:0.02 12:0.02 13:0.03 14:0.01 16:-0.02 17:-0.01 19:0.01 20:0.01 
-1 2:-0.01 4:-0.01 5:-0.01 7:0.01 8:0.01 10:0.02 11:0.02 12:0.03 13:0.01 15:-0.02 16:-0.01 18:0.01 19:0.01 20:-0.01 
-1 1:-0.01 3:-0.01 4:-0.01 6:0.01 7:0.01 9:0.02 10:0.02 11:0.03 12:0.01 14:-0.02 15:-0.01 17:0.01 18:0.01 19:-0.01 
-1 2:-0.01 3:-0.01 5:0.01 6:0.01 8:0.02 9:0.02 10:0.03 11:0.01 13:-0.02 14:-0.01 16:0.01 17:0.01 18:-0.01 
-1 1:-0.01 2:-0.01 4:0.01 5:0.01 7:0.02 8:0.02 9:0.03 10:0.01 12:-0.02 13:-0.01 15:0.01 16:0.01 17:-0.01 20:0.01 
-1 1:-0.01 3:0.01 4:0.01 6:0.02 7:0.02 8:0.03 9:0.01 11:-0.02 12:-0.01 14:0.01 15:0.01 16:-0.01 19:0.01 20:0.03 
-1 2:0.01 3:0.01 5:0.02 6:0.02 7:0.03 8:0.01 10:-0.02 11:-0.01 13:0.01 14:0.01 15:-0.01 18:0.01 19:0.03 20:0.01 
-1 1:0.01 2:0.01 4:0.02 5:0.02 6:0.03 7:0.01 9:-0.02 10:-0.01 12:0.01 13:0.01 14:-0.01 17:0.01 18:0.03 19:0.01 20:0.02 
-1 1:0.01 3:0.02 4:0.02 5:0.03 6:0.01 8:-0.02 9:-0.01 11:0.01 12:0.01 13:-0.01 16:0.01 17:0.03 18:0.01 19:0.02 20:0.02 
-1 2:0.02 3:0.02 4:0.03 5:0.01 7:-0.02 8:-0.01 10:0.01 11:0.01 12:-0.01 15:0.01 16:0.03 17:0.01 18:0.02 19:0.02 20:0.03 
-1 1:-0.02 2:-0.01 4:0.01 5:0.01 6:-0.01 9:0.01 10:0.03 11:0.01 12:0.02 13:0.02 14:0.03 16:-0.01 17:-0.02 18:-0.01 19:-0.02 20:0.01 
-1 1:-0.01 3:0.01 4:0.01 5:-0.01 8:0.01 9:0.03 10:0.01 11:0.02 12:0.02 13:0.03 15:-0.01 16:-0.02 17:-0.01 18:-0.02 19:0.01 20:0.02 
-1 2:0.01 3:0.01 4:-0.01 7:0.01 8:0.03 9:0.01 10:0.02 11:0.02 12:0.03 14:-0.01 15:-0.02 16:-0.01 17:-0.02 18:0.01 19:0.02 20:0.01 
-1 1:0.01 2:0.01 3:-0.01 6:0.01 7:0.03 8:0.01 9:0.02 10:0.02 11:0.03 13:-0.01 14:-0.02 15:-0.01 16:-0.02 17:0.01 18:0.02 19:0.01 
-1 3:0.01 4:0.03 5:0.01 6:0.02 7:0.02 8:0.03 10:-0.01 11:-0.02 12:-0.01 13:-0.02 14:0.01 15:0.02 16:0.01 
-1 5:0.01 6:0.01 8:0.01 9:0.01 10:0.01 13:-0.01 17:-0.02 18:-0.02 19:-0.02 20:-0.01 
-1 4:0.01 5:0.01 7:0.01 8:0.01 9:0.01 12:-0.01 16:-0.02 17:-0.02 18:-0.02 19:-0.01 20:-0.01 
-1 3:0.01 4:0.01 6:0.01 7:0.01 8:0.01 11:-0.01 15:-0.02 16:-0.02 17:-0.02 18:-0.01 19:-0.01 
-1 2:0.01 3:0.01 5:0.01 6:0.01 7:0.01 10:-0.01 14:-0.02 15:-0.02 16:-0.02 17:-0.01 18:-0.01 
-1 1:0.01 2:0.01 4:0.01 5:0.01 6:0.01 9:-0.01 13:-0.02 14:-0.02 15:-0.02 16:-0.01 17:-0.01 20:-0.02 
-1 1:0.01 3:0.01 4:0.01 5:0.01 8:-0.01 12:-0.02 13:-0.02 14:-0.02 15:-0.01 16:-0.01 19:-0.02 20:-0.02 
-1 2:0.01 3:0.01 4:0.01 7:-0.01 11:-0.02 12:-0.02 13:-0.02 14:-0.01 15:-0.01 18:-0.02 19:-0.02 20:-0.01 
-1 1:0.01 2:0.01 3:0.01 6:-0.01 10:-0.02 11:-0.02 12:-0.02 13:-0.01 14:-0.01 17:-0.02 18:-0.02 19:-0.01 20:0.01 
-1 1:0.01 2:0.01 5:-0.01 9:-0.02 10:-0.02 11:-0.02 12:-0.01 13:-0.01 16:-0.02 17:-0.02 18:-0.01 19:0.01 20:0.01 
-1 1:0.01 4:-0.01 8:-0.02 9:-0.02 10:-0.02 11:-0.01 12:-0.01 15:-0.02 16:-0.02 17:-0.01 18:0.01 19:0.01 
-1 3:-0.01 7:-0.02 8:-0.02 9:-0.02 10:-0.01 11:-0.01 14:-0.02 15:-0.02 16:-0.01 17:0.01 18:0.01 20:-0.01 
-1 2:-0.01 6:-0.02 7:-0.02 8:-0.02 9:-0.01 10:-0.01 13:-0.02 14:-0.02 15:-0.01 16:0.01 17:0.01 19:-0.01 
-1 1:-0.01 5:-0.02 6:-0.02 7:-0.02 8:-0.01 9:-0.01 12:-0.02 13:-0.02 14:-0.01 15:0.01 16:0.01 18:-0.01 20:-0.01 
-1 4:-0.02 5:-0.02 6:-0.02 7:-0.01 8:-0.01 11:-0.02 12:-0.02 13:-0.01 14:0.01 15:0.01 17:-0.01 19:-0.01 
-1 3:-0.02 4:-0.02 5:-0.02 6:-0.01 7:-0.01 10:-0.02 11:-0.02 12:-0.01 13:0.01 14:0.01 16:-0.01 18:-0.01 
-1 2:-0.02 3:-0.02 4:-0.02 5:-0.01 6:-0.01 9:-0.02 10:-0.02 11:-0.01 12:0.01 13:0.01 15:-0.01 17:-0.01 
-1 1:-0.02 2:-0.02 3:-0.02 4:-0.01 5:-0.01 8:-0.02 9:-0.02 10:-0.01 11:0.01 12:0.01 14:-0.01 16:-0.01 20:0.01 
-1 1:-0.02 2:-0.02 3:-0.01 4:-0.01 7:-0.02 8:-0.02 9:-0.01 10:0.01 11:0.01 13:-0.01 15:-0.01 19:0.01 
-1 1:-0.02 2:-0.01 3:-0.01 6:-0.02 7:-0.02 8:-0.01 9:0.01 10:0.01 12:-0.01 14:-0.01 18:0.01 20:0.01 
-1 1:-0.01 2:-0.01 5:-0.02 6:-0.02 7:-0.01 8:0.01 9:0.01 11:-0.01 13:-0.01 17:0.01 19:0.01 
-1 1:-0.01 4:-0.02 5:-0.02 6:-0.01 7:0.01 8:0.01 10:-0.01 12:-0.01 16:0.01 18:0.01 
-1 3:-0.02 4:-0.02 5:-0.01 6:0.01 7:0.01 9:-0.01 11:-0.01 15:0.01 17:0.01 20:-0.01 
-1 2:-0.02 3:-0.02 4:-0.01 5:0.01 6:0.01 8:-0.01 10:-0.01 14:0.01 16:0.01 19:-0.01 20:-0.02 
-1 1:-0.02 2:-0.02 3:-0.01 4:0.01 5:0.01 7:-0.01 9:-0.01 13:0.01 15:0.01 18:-0.01 19:-0.02 20:-0.01 
-1 1:-0.02 2:-0.01 3:0.01 4:0.01 6:-0.01 8:-0.01 12:0.01 14:0.01 17:-0.01 18:-0.02 19:-0.01 20:-0.01 
-1 1:-0.01 2:0.01 3:0.01 5:-0.01 7:-0.01 11:0.01 13:0.01 16:-0.01 17:-0.02 18:-0.01 19:-0.01 20:0.02 
-1 1:0.01 2:0.01 4:-0.01 6:-0.01 10:0.01 12:0.01 15:-0.01 16:-0.02 17:-0.01 18:-0.01 19:0.02 
-1 1:0.01 3:-0.01 5:-0.01 9:0.01 11:0.01 14:-0.01 15:-0.02 16:-0.01 17:-0.01 18:0.02 
-1 2:-0.01 4:-0.01 8:0.01 10:0.01 13:-0.01 14:-0.02 15:-0.01 16:-0.01 17:0.02 20:-0.01 
-1 1:-0.01 3:-0.01 7:0.01 9:0.01 12:-0.01 13:-0.02 14:-0.01 15:-0.01 16:0.02 19:-0.01 20:-0.01 
-1 2:-0.01 6:0.01 8:0.01 11:-0.01 12:-0.02 13:-0.01 14:-0.01 15:0.02 18:-0.01 19:-0.01 
-1 1:-0.01 5:0.01 7:0.01 10:-0.01 11:-0.02 12:-0.01 13:-0.01 14:0.02 17:-0.01 18:-0.01 
-1 4:0.01 6:0.01 9:-0.01 10:-0.02 11:-0.01 12:-0.01 13:0.02 16:-0.01 17:-0.01 
-1 3:0.01 5:0.01 8:-0.01 9:-0.02 10:-0.01 11:-0.01 12:0.02 15:-0.01 16:-0.01 
-1 2:0.01 4:0.01 7:-0.01 8:-0.02 9:-0.01 10:-0.01 11:0.02 14:-0.01 15:-0.01 
-1 1:0.01 3:0.01 6:-0.01 7:-0.02 8:-0.01 9:-0.01 10:0.02 13:-0.01 14:-0.01 
-1 2:0.01 5:-0.01 6:-0.02 7:-0.01 8:-0.01 9:0.02 12:-0.01 13:-0.01 20:-0.04 
-1 1:0.01 4:-0.01 5:-0.02 6:-0.01 7:-0.01 8:0.02 11:-0.01 12:-0.01 19:-0.04 20:-0.04 
-1 3:-0.01 4:-0.02 5:-0.01 6:-0.01 7:0.02 10:-0.01 11:-0.01 18:-0.04 19:-0.04 20:-0.04 
-1 2:-0.01 3:-0.02 4:-0.01 5:-0.01 6:0.02 9:-0.01 10:-0.01 17:-0.04 18:-0.04 19:-0.04 20:0.01 
-1 1:-0.01 2:-0.02 3:-0.01 4:-0.01 5:0.02 8:-0.01 9:-0.01 16:-0.04 17:-0.04 18:-0.04 19:0.01 20:0.01 
-1 1:-0.02 2:-0.01 3:-0.01 4:0.02 7:-0.01 8:-0.01 15:-0.04 16:-0.04 17:-0.04 18:0.01 19:0.01 20:0.01 
-1 1:-0.01 2:-0.01 3:0.02 6:-0.01 7:-0.01 14:-0.04 15:-0.04 16:-0.04 17:0.01 18:0.01 19:0.01 20:-0.01 
-1 1:-0.01 2:0.02 5:-0.01 6:-0.01 13:-0.04 14:-0.04 15:-0.04 16:0.01 17:0.01 18:0.01 19:-0.01 20:-0.01 
-1 1:0.02 4:-0.01 5:-0.01 12:-0.04 13:-0.04 14:-0.04 15:0.01 16:0.01 17:0.01 18:-0.01 19:-0.01 
-1 3:-0.01 4:-0.01 11:-0.04 12:-0.04 13:-0.04 14:0.01 15:0.01 16:0.01 17:-0.01 18:-0.01 
-1 2:-0.01 3:-0.01 10:-0.04 11:-0.04 12:-0.04 13:0.01 14:0.01 15:0.01 16:-0.01 17:-0.01 20:0.01 
-1 1:-0.01 2:-0.01 9:-0.04 10:-0.04 11:-0.04 12:0.01 13:0.01 14:0.01 15:-0.01 16:-0.01 19:0.01 
-1 1:-0.01 8:-0.04 9:-0.04 10:-0.04 11:0.01 12:0.01 13:0.01 14:-0.01 15:-0.01 18:0.01 20:0.01 
-1 7:-0.04 8:-0.04 9:-0.04 10:0.01 11:0.01 12:0.01 13:-0.01 14:-0.01 17:0.01 19:0.01 
-1 6:-0.04 7:-0.04 8:-0.04 9:0.01 10:0.01 11:0.01 12:-0.01 13:-0.01 16:0.01 18:0.01 
-1 5:-0.04 6:-0.04 7:-0.04 8:0.01 9:0.01 10:0.01 11:-0.01 12:-0.01 15:0.01 17:0.01 
-1 4:-0.04 5:-0.04 6:-0.04 7:0.01 8:0.01 9:0.01 10:-0.01 11:-0.01 14:0.01 16:0.01 
-1 3:-0.04 4:-0.04 5:-0.04 6:0.01 7:0.01 8:0.01 9:-0.01 10:-0.01 13:0.01 15:0.01 20:0.01 
-1 2:-0.04 3:-0.04 4:-0.04 5:0.01 6:0.01 7:0.01 8:-0.01 9:-0.01 12:0.01 14:0.01 19:0.01 20:0.01 
-1 1:-0.04 2:-0.04 3:-0.04 4:0.01 5:0.01 6:0.01 7:-0.01 8:-0.01 11:0.01 13:0.01 18:0.01 19:0.01 20:0.01 
-1 1:-0.04 2:-0.04 3:0.01 4:0.01 5:0.01 6:-0.01 7:-0.01 10:0.01 12:0.01 17:0.01 18:0.01 19:0.01 
-1 1:0.01 2:0.01 3:0.01 4:-0.01 5:-0.01 8:0.01 10:0.01 15:0.01 16:0.01 17:0.01 19:-0.01 
-1 1:0.01 2:0.01 3:-0.01 4:-0.01 7:0.01 9:0.01 14:0.01 15:0.01 16:0.01 18:-0.01 20:-0.01 
-1 1:-0.01 2:-0.01 5:0.01 7:0.01 12:0.01 13:0.01 14:0.01 16:-0.01 18:-0.01 19:-0.01 20:-0.01 
-1 1:-0.01 4:0.01 6:0.01 11:0.01 12:0.01 13:0.01 15:-0.01 17:-0.01 18:-0.01 19:-0.01 20:-0.01 
-1 3:0.01 5:0.01 10:0.01 11:0.01 12:0.01 14:-0.01 16:-0.01 17:-0.01 18:-0.01 19:-0.01 
-1 2:0.01 4:0.01 9:0.01 10:0.01 11:0.01 13:-0.01 15:-0.01 16:-0.01 17:-0.01 18:-0.01 
-1 1:0.01 3:0.01 8:0.01 9:0.01 10:0.01 12:-0.01 14:-0.01 15:-0.01 16:-0.01 17:-0.01 20:0.01 
-1 2:0.01 7:0.01 8:0.01 9:0.01 11:-0.01 13:-0.01 14:-0.01 15:-0.01 16:-0.01 19:0.01 
-1 1:0.01 6:0.01 7:0.01 8:0.01 10:-0.01 12:-0.01 13:-0.01 14:-0.01 15:-0.01 18:0.01 20:-0.01 
-1 5:0.01 6:0.01 7:0.01 9:-0.01 11:-0.01 12:-0.01 13:-0.01 14:-0.01 17:0.01 19:-0.01 20:0.04 
-1 4:0.01 5:0.01 6:0.01 8:-0.01 10:-0.01 11:-0.01 12:-0.01 13:-0.01 16:0.01 18:-0.01 19:0.04 20:0.03 
-1 3:0.01 4:0.01 5:0.01 7:-0.01 9:-0.01 10:-0.01 11:-0.01 12:-0.01 15:0.01 17:-0.01 18:0.04 19:0.03 20:0.04 
-0.1975738607972279 1:0.04 2:0.03 3:0.04 4:0.01 5:0.01 7:-0.01 8:0.01 9:-0.01 11:-0.02 13:0.01 15:-0.01 16:-0.01 20:0.01 
-1 1:0.03 2:0.04 3:0.01 4:0.01 6:-0.01 7:0.01 8:-0.01 10:-0.02 12:0.01 14:-0.01 15:-0.01 19:0.01 
-1 1:0.04 2:0.01 3:0.01 5:-0.01 6:0.01 7:-0.01 9:-0.02 11:0.01 13:-0.01 14:-0.01 18:0.01 20:0.01 
-1 1:0.01 2:0.01 4:-0.01 5:0.01 6:-0.01 8:-0.02 10:0.01 12:-0.01 13:-0.01 17:0.01 19:0.01 20:0.01 
-1 1:0.01 3:-0.01 4:0.01 5:-0.01 7:-0.02 9:0.01 11:-0.01 12:-0.01 16:0.01 18:0.01 19:0.01 
-1 2:-0.01 3:0.01 4:-0.01 6:-0.02 8:0.01 10:-0.01 11:-0.01 15:0.01 17:0.01 18:0.01 20:0.01 
-1 1:-0.01 2:0.01 3:-0.01 5:-0.02 7:0.01 9:-0.01 10:-0.01 14:0.01 16:0.01 17:0.01 19:0.01 
-1 1:0.01 2:-0.01 4:-0.02 6:0.01 8:-0.01 9:-0.01 13:0.01 15:0.01 16:0.01 18:0.01 
-1 1:-0.01 3:-0.02 5:0.01 7:-0.01 8:-0.01 12:0.01 14:0.01 15:0.01 17:0.01 
-1 2:-0.02 4:0.01 6:-0.01 7:-0.01 11:0.01 13:0.01 14:0.01 16:0.01 20:-0.01 
-1 1:-0.02 3:0.01 5:-0.01 6:-0.01 10:0.01 12:0.01 13:0.01 15:0.01 19:-0.01 
-1 2:0.01 4:-0.01 5:-0.01 9:0.01 11:0.01 12:0.01 14:0.01 18:-0.01 20:0.01 
-1 1:0.01 3:-0.01 4:-0.01 8:0.01 10:0.01 11:0.01 13:0.01 17:-0.01 19:0.01 20:0.01 
-1 2:-0.01 3:-0.01 7:0.01 9:0.01 10:0.01 12:0.01 16:-0.01 18:0.01 19:0.01 20:0.05 
1 4:0.01 6:0.01 7:0.01 9:0.01 13:-0.01 15:0.01 16:0.01 17:0.05 18:0.03 19:0.04 20:-0.01 
1 3:0.01 5:0.01 6:0.01 8:0.01 12:-0.01 14:0.01 15:0.01 16:0.05 17:0.03 18:0.04 19:-0.01 20:-0.01 
1 2:0.01 4:0.01 5:0.01 7:0.01 11:-0.01 13:0.01 14:0.01 15:0.05 16:0.03 17:0.04 18:-0.01 19:-0.01 20:-0.01 
-1 1:0.05 2:0.03 3:0.04 4:-0.01 5:-0.01 6:-0.01 15:-0.02 16:-0.03 17:-0.02 18:-0.01 19:-0.01 20:-0.01 
-1 1:0.04 2:-0.01 3:-0.01 4:-0.01 13:-0.02 14:-0.03 15:-0.02 16:-0.01 17:-0.01 18:-0.01 19:-0.01 
-1 1:-0.01 2:-0.01 3:-0.01 12:-0.02 13:-0.03 14:-0.02 15:-0.01 16:-0.01 17:-0.01 18:-0.01 20:0.01 
-1 1:-0.01 2:-0.01 11:-0.02 12:-0.03 13:-0.02 14:-0.01 15:-0.01 16:-0.01 17:-0.01 19:0.01 20:0.01 
-1 1:-0.01 10:-0.02 11:-0.03 12:-0.02 13:-0.01 14:-0.01 15:-0.01 16:-0.01 18:0.01 19:0.01 
-1 9:-0.02 10:-0.03 11:-0.02 12:-0.01 13:-0.01 14:-0.01 15:-0.01 17:0.01 18:0.01 
-1 6:-0.02 7:-0.03 8:-0.02 9:-0.01 10:-0.01 11:-0.01 12:-0.01 14:0.01 15:0.01 18:-0.01 19:-0.02 
-1 5:-0.02 6:-0.03 7:-0.02 8:-0.01 9:-0.01 10:-0.01 11:-0.01 13:0.01 14:0.01 17:-0.01 18:-0.02 20:0.01 
-1 4:-0.02 5:-0.03 6:-0.02 7:-0.01 8:-0.01 9:-0.01 10:-0.01 12:0.01 13:0.01 16:-0.01 17:-0.02 19:0.01 20:0.01 
-1 3:-0.02 4:-0.03 5:-0.02 6:-0.01 7:-0.01 8:-0.01 9:-0.01 11:0.01 12:0.01 15:-0.01 16:-0.02 18:0.01 19:0.01 20:-0.01 
-1 2:-0.02 3:-0.03 4:-0.02 5:-0.01 6:-0.01 7:-0.01 8:-0.01 10:0.01 11:0.01 14:-0.01 15:-0.02 17:0.01 18:0.01 19:-0.01 
-1 1:-0.02 2:-0.03 3:-0.02 4:-0.01 5:-0.01 6:-0.01 7:-0.01 9:0.01 10:0.01 13:-0.01 14:-0.02 16:0.01 17:0.01 18:-0.01 
-1 1:-0.03 2:-0.02 3:-0.01 4:-0.01 5:-0.01 6:-0.01 8:0.01 9:0.01 12:-0.01 13:-0.02 15:0.01 16:0.01 17:-0.01 20:0.02 
-1 1:-0.02 2:-0.01 3:-0.01 4:-0.01 5:-0.01 7:0.01 8:0.01 11:-0.01 12:-0.02 14:0.01 15:0.01 16:-0.01 19:0.02 
-1 1:-0.01 2:-0.01 3:-0.01 4:-0.01 6:0.01 7:0.01 10:-0.01 11:-0.02 13:0.01 14:0.01 15:-0.01 18:0.02 
-1 1:-0.01 2:-0.01 4:0.01 5:0.01 8:-0.01 9:-0.02 11:0.01 12:0.01 13:-0.01 16:0.02 19:-0.01 
-1 1:-0.01 3:0.01 4:0.01 7:-0.01 8:-0.02 10:0.01 11:0.01 12:-0.01 15:0.02 18:-0.01 
-1 2:0.01 3:0.01 6:-0.01 7:-0.02 9:0.01 10:0.01 11:-0.01 14:0.02 17:-0.01 
-1 1:0.01 2:0.01 5:-0.01 6:-0.02 8:0.01 9:0.01 10:-0.01 13:0.02 16:-0.01 20:-0.01 
-1 1:0.01 4:-0.01 5:-0.02 7:0.01 8:0.01 9:-0.01 12:0.02 15:-0.01 19:-0.01 20:0.01 
-1 3:-0.01 4:-0.02 6:0.01 7:0.01 8:-0.01 11:0.02 14:-0.01 18:-0.01 19:0.01 
-1 2:-0.01 3:-0.02 5:0.01 6:0.01 7:-0.01 10:0.02 13:-0.01 17:-0.01 18:0.01 20:0.01 
-1 1:-0.01 2:-0.02 4:0.01 5:0.01 6:-0.01 9:0.02 12:-0.01 16:-0.01 17:0.01 19:0.01 
-1 1:-0.02 3:0.01 4:0.01 5:-0.01 8:0.02 11:-0.01 15:-0.01 16:0.01 18:0.01 20:0.01 
-1 2:0.01 3:0.01 4:-0.01 7:0.02 10:-0.01 14:-0.01 15:0.01 17:0.01 19:0.01 
1 1:0.01 3:0.01 10:0.01 11:0.02 12:0.01 13:0.01 14:0.01 15:0.01 17:0.01 18:0.01 19:0.01 
1 1:0.01 8:0.01 9:0.02 10:0.01 11:0.01 12:0.01 13:0.01 15:0.01 16:0.01 17:0.01 19:-0.02 20:-0.04 
1 7:0.01 8:0.02 9:0.01 10:0.01 11:0.01 12:0.01 14:0.01 15:0.01 16:0.01 18:-0.02 19:-0.04 20:-0.04 
-1 1:0.01 2:0.01 3:0.01 5:0.01 6:0.01 7:0.01 9:-0.02 10:-0.04 11:-0.04 18:-0.01 19:-0.01 
-1 1:0.01 2:0.01 4:0.01 5:0.01 6:0.01 8:-0.02 9:-0.04 10:-0.04 17:-0.01 18:-0.01 
-1 1:0.01 3:0.01 4:0.01 5:0.01 7:-0.02 8:-0.04 9:-0.04 16:-0.01 17:-0.01 20:0.01 
1 1:0.01 2:0.02 3:0.02 4:0.02 5:0.01 8:-0.01 9:0.01 10:0.01 11:0.01 12:0.01 14:0.01 16:0.01 18:0.01 19:0.01 
1 1:0.02 2:0.02 3:0.02 4:0.01 7:-0.01 8:0.01 9:0.01 10:0.01 11:0.01 13:0.01 15:0.01 17:0.01 18:0.01 20:-0.01 
1 1:0.02 2:0.02 3:0.01 6:-0.01 7:0.01 8:0.01 9:0.01 10:0.01 12:0.01 14:0.01 16:0.01 17:0.01 19:-0.01 20:0.01 
1 1:0.01 3:0.01 5:0.01 7:0.01 8:0.01 10:-0.01 11:0.01 12:0.07 13:0.08 14:0.08 15:0.02 16:0.02 17:-0.01 18:-0.01 20:-0.01 
1 2:0.01 4:0.01 6:0.01 7:0.01 9:-0.01 10:0.01 11:0.07 12:0.08 13:0.08 14:0.02 15:0.02 16:-0.01 17:-0.01 19:-0.01 20:0.02 
1 1:0.01 3:0.01 5:0.01 6:0.01 8:-0.01 9:0.01 10:0.07 11:0.08 12:0.08 13:0.02 14:0.02 15:-0.01 16:-0.01 18:-0.01 19:0.02 20:0.01 
1 2:0.01 4:0.01 5:0.01 7:-0.01 8:0.01 9:0.07 10:0.08 11:0.08 12:0.02 13:0.02 14:-0.01 15:-0.01 17:-0.01 18:0.02 19:0.01 20:0.03 
1 1:0.01 3:0.01 4:0.01 6:-0.01 7:0.01 8:0.07 9:0.08 10:0.08 11:0.02 12:0.02 13:-0.01 14:-0.01 16:-0.01 17:0.02 18:0.01 19:0.03 20:0.06 
1 2:0.01 3:0.01 5:-0.01 6:0.01 7:0.07 8:0.08 9:0.08 10:0.02 11:0.02 12:-0.01 13:-0.01 15:-0.01 16:0.02 17:0.01 18:0.03 19:0.06 20:0.05 
1 1:0.01 2:0.01 4:-0.01 5:0.01 6:0.07 7:0.08 8:0.08 9:0.02 10:0.02 11:-0.01 12:-0.01 14:-0.01 15:0.02 16:0.01 17:0.03 18:0.06 19:0.05 20:0.03 
1 2:-0.01 3:0.01 4:0.07 5:0.08 6:0.08 7:0.02 8:0.02 9:-0.01 10:-0.01 12:-0.01 13:0.02 14:0.01 15:0.03 16:0.06 17:0.05 18:0.03 20:-0.01 
1 1:-0.01 2:0.01 3:0.07 4:0.08 5:0.08 6:0.02 7:0.02 8:-0.01 9:-0.01 11:-0.01 12:0.02 13:0.01 14:0.03 15:0.06 16:0.05 17:0.03 19:-0.01 20:-0.01 
1 1:0.01 2:0.07 3:0.08 4:0.08 5:0.02 6:0.02 7:-0.01 8:-0.01 10:-0.01 11:0.02 12:0.01 13:0.03 14:0.06 15:0.05 16:0.03 18:-0.01 19:-0.01 
1 1:0.07 2:0.08 3:0.08 4:0.02 5:0.02 6:-0.01 7:-0.01 9:-0.01 10:0.02 11:0.01 12:0.03 13:0.06 14:0.05 15:0.03 17:-0.01 18:-0.01 20:0.04 
1 1:0.08 2:0.08 3:0.02 4:0.02 5:-0.01 6:-0.01 8:-0.01 9:0.02 10:0.01 11:0.03 12:0.06 13:0.05 14:0.03 16:-0.01 17:-0.01 19:0.04 20:0.03 
1 1:0.08 2:0.02 3:0.02 4:-0.01 5:-0.01 7:-0.01 8:0.02 9:0.01 10:0.03 11:0.06 12:0.05 13:0.03 15:-0.01 16:-0.01 18:0.04 19:0.03 20:0.05 
-1 1:-0.01 2:0.02 3:0.01 4:0.03 5:0.06 6:0.05 7:0.03 9:-0.01 10:-0.01 12:0.04 13:0.03 14:0.05 15:0.03 16:0.07 17:0.08 18:0.06 19:-0.02 20:-0.03 
-1 1:-0.01 2:-0.01 4:0.04 5:0.03 6:0.05 7:0.03 8:0.07 9:0.08 10:0.06 11:-0.02 12:-0.03 13:-0.03 16:0.04 17:0.08 18:0.04 19:-0.01 20:-0.03 
-1 1:0.08 2:0.06 3:-0.02 4:-0.03 5:-0.03 8:0.04 9:0.08 10:0.04 11:-0.01 12:-0.03 13:-0.01 14:0.02 15:0.03 16:0.05 17:0.05 18:0.02 19:0.02 20:0.01 
-1 1:-0.03 2:-0.03 5:0.04 6:0.08 7:0.04 8:-0.01 9:-0.03 10:-0.01 11:0.02 12:0.03 13:0.05 14:0.05 15:0.02 16:0.02 17:0.01 19:-0.02 20:-0.04 
-1 1:-0.01 2:0.02 3:0.03 4:0.05 5:0.05 6:0.02 7:0.02 8:0.01 10:-0.02 11:-0.04 12:-0.03 13:-0.01 14:0.01 15:0.01 16:0.02 17:0.03 18:0.03 19:0.04 20:0.05 
-1 1:0.02 2:0.03 3:0.05 4:0.05 5:0.02 6:0.02 7:0.01 9:-0.02 10:-0.04 11:-0.03 12:-0.01 13:0.01 14:0.01 15:0.02 16:0.03 17:0.03 18:0.04 19:0.05 20:0.05 
-1 1:0.03 2:0.05 3:0.05 4:0.02 5:0.02 6:0.01 8:-0.02 9:-0.04 10:-0.03 11:-0.01 12:0.01 13:0.01 14:0.02 15:0.03 16:0.03 17:0.04 18:0.05 19:0.05 20:0.03 
-1 1:0.05 2:0.05 3:0.02 4:0.02 5:0.01 7:-0.02 8:-0.04 9:-0.03 10:-0.01 11:0.01 12:0.01 13:0.02 14:0.03 15:0.03 16:0.04 17:0.05 18:0.05 19:0.03 20:-0.01 
-1 1:0.05 2:0.02 3:0.02 4:0.01 6:-0.02 7:-0.04 8:-0.03 9:-0.01 10:0.01 11:0.01 12:0.02 13:0.03 14:0.03 15:0.04 16:0.05 17:0.05 18:0.03 19:-0.01 20:-0.03 
-1 1:0.02 2:0.02 3:0.01 5:-0.02 6:-0.04 7:-0.03 8:-0.01 9:0.01 10:0.01 11:0.02 12:0.03 13:0.03 14:0.04 15:0.05 16:0.05 17:0.03 18:-0.01 19:-0.03 20:-0.03 
-1 1:0.02 2:0.01 4:-0.02 5:-0.04 6:-0.03 7:-0.01 8:0.01 9:0.01 10:0.02 11:0.03 12:0.03 13:0.04 14:0.05 15:0.05 16:0.03 17:-0.01 18:-0.03 19:-0.03 20:0.02 
-1 1:0.01 3:-0.02 4:-0.04 5:-0.03 6:-0.01 7:0.01 8:0.01 9:0.02 10:0.03 11:0.03 12:0.04 13:0.05 14:0.05 15:0.03 16:-0.01 17:-0.03 18:-0.03 19:0.02 20:0.04 
-1 2:-0.02 3:-0.04 4:-0.03 5:-0.01 6:0.01 7:0.01 8:0.02 9:0.03 10:0.03 11:0.04 12:0.05 13:0.05 14:0.03 15:-0.01 16:-0.03 17:-0.03 18:0.02 19:0.04 20:0.01 
-1 1:-0.02 2:-0.04 3:-0.03 4:-0.01 5:0.01 6:0.01 7:0.02 8:0.03 9:0.03 10:0.04 11:0.05 12:0.05 13:0.03 14:-0.01 15:-0.03 16:-0.03 17:0.02 18:0.04 19:0.01 20:-0.04 
-1 1:-0.04 2:-0.03 3:-0.01 4:0.01 5:0.01 6:0.02 7:0.03 8:0.03 9:0.04 10:0.05 11:0.05 12:0.03 13:-0.01 14:-0.03 15:-0.03 16:0.02 17:0.04 18:0.01 19:-0.04 20:-0.05 
-1 1:-0.03 2:-0.01 3:0.01 4:0.01 5:0.02 6:0.03 7:0.03 8:0.04 9:0.05 10:0.05 11:0.03 12:-0.01 13:-0.03 14:-0.03 15:0.02 16:0.04 17:0.01 18:-0.04 19:-0.05 20:-0.03 
-1 1:-0.01 2:0.01 3:0.01 4:0.02 5:0.03 6:0.03 7:0.04 8:0.05 9:0.05 10:0.03 11:-0.01 12:-0.03 13:-0.03 14:0.02 15:0.04 16:0.01 17:-0.04 18:-0.05 19:-0.03 20:-0.02 
-1 1:0.01 2:0.01 3:0.02 4:0.03 5:0.03 6:0.04 7:0.05 8:0.05 9:0.03 10:-0.01 11:-0.03 12:-0.03 13:0.02 14:0.04 15:0.01 16:-0.04 17:-0.05 18:-0.03 19:-0.02 20:-0.01 
-1 1:0.01 2:0.02 3:0.03 4:0.03 5:0.04 6:0.05 7:0.05 8:0.03 9:-0.01 10:-0.03 11:-0.03 12:0.02 13:0.04 14:0.01 15:-0.04 16:-0.05 17:-0.03 18:-0.02 19:-0.01 
-1 1:0.02 2:0.03 3:0.03 4:0.04 5:0.05 6:0.05 7:0.03 8:-0.01 9:-0.03 10:-0.03 11:0.02 12:0.04 13:0.01 14:-0.04 15:-0.05 16:-0.03 17:-0.02 18:-0.01 20:0.02 
-1 1:0.03 2:0.03 3:0.04 4:0.05 5:0.05 6:0.03 7:-0.01 8:-0.03 9:-0.03 10:0.02 11:0.04 12:0.01 13:-0.04 14:-0.05 15:-0.03 16:-0.02 17:-0.01 19:0.02 20:0.04 
-1 1:0.03 2:0.04 3:0.05 4:0.05 5:0.03 6:-0.01 7:-0.03 8:-0.03 9:0.02 10:0.04 11:0.01 12:-0.04 13:-0.05 14:-0.03 15:-0.02 16:-0.01 18:0.02 19:0.04 20:0.03 
-1 1:0.04 2:0.05 3:0.05 4:0.03 5:-0.01 6:-0.03 7:-0.03 8:0.02 9:0.04 10:0.01 11:-0.04 12:-0.05 13:-0.03 14:-0.02 15:-0.01 17:0.02 18:0.04 19:0.03 
-1 1:0.05 2:0.05 3:0.03 4:-0.01 5:-0.03 6:-0.03 7:0.02 8:0.04 9:0.01 10:-0.04 11:-0.05 12:-0.03 13:-0.02 14:-0.01 16:0.02 17:0.04 18:0.03 20:-0.02 
-1 1:0.05 2:0.03 3:-0.01 4:-0.03 5:-0.03 6:0.02 7:0.04 8:0.01 9:-0.04 10:-0.05 11:-0.03 12:-0.02 13:-0.01 15:0.02 16:0.04 17:0.03 19:-0.02 20:-0.03 
-1 1:0.03 2:-0.01 3:-0.03 4:-0.03 5:0.02 6:0.04 7:0.01 8:-0.04 9:-0.05 10:-0.03 11:-0.02 12:-0.01 14:0.02 15:0.04 16:0.03 18:-0.02 19:-0.03 20:-0.02 
-1 1:-0.01 2:-0.03 3:-0.03 4:0.02 5:0.04 6:0.01 7:-0.04 8:-0.05 9:-0.03 10:-0.02 11:-0.01 13:0.02 14:0.04 15:0.03 17:-0.02 18:-0.03 19:-0.02 20:0.01 
-1 1:-0.03 2:-0.03 3:0.02 4:0.04 5:0.01 6:-0.04 7:-0.05 8:-0.03 9:-0.02 10:-0.01 12:0.02 13:0.04 14:0.03 16:-0.02 17:-0.03 18:-0.02 19:0.01 20:0.01 
-1 1:-0.03 2:0.02 3:0.04 4:0.01 5:-0.04 6:-0.05 7:-0.03 8:-0.02 9:-0.01 11:0.02 12:0.04 13:0.03 15:-0.02 16:-0.03 17:-0.02 18:0.01 19:0.01 
-1 1:0.02 2:0.04 3:0.01 4:-0.04 5:-0.05 6:-0.03 7:-0.02 8:-0.01 10:0.02 11:0.04 12:0.03 14:-0.02 15:-0.03 16:-0.02 17:0.01 18:0.01 20:-0.03 
-1 1:0.04 2:0.01 3:-0.04 4:-0.05 5:-0.03 6:-0.02 7:-0.01 9:0.02 10:0.04 11:0.03 13:-0.02 14:-0.03 15:-0.02 16:0.01 17:0.01 19:-0.03 20:-0.04 
-1 1:0.01 2:-0.04 3:-0.05 4:-0.03 5:-0.02 6:-0.01 8:0.02 9:0.04 10:0.03 12:-0.02 13:-0.03 14:-0.02 15:0.01 16:0.01 18:-0.03 19:-0.04 20:-0.03 
-1 1:-0.04 2:-0.05 3:-0.03 4:-0.02 5:-0.01 7:0.02 8:0.04 9:0.03 11:-0.02 12:-0.03 13:-0.02 14:0.01 15:0.01 17:-0.03 18:-0.04 19:-0.03 20:-0.03 
-1 1:-0.05 2:-0.03 3:-0.02 4:-0.01 6:0.02 7:0.04 8:0.03 10:-0.02 11:-0.03 12:-0.02 13:0.01 14:0.01 16:-0.03 17:-0.04 18:-0.03 19:-0.03 
-1 1:-0.03 2:-0.02 3:-0.01 5:0.02 6:0.04 7:0.03 9:-0.02 10:-0.03 11:-0.02 12:0.01 13:0.01 15:-0.03 16:-0.04 17:-0.03 18:-0.03 20:-0.02 
-1 1:-0.02 2:-0.01 4:0.02 5:0.04 6:0.03 8:-0.02 9:-0.03 10:-0.02 11:0.01 12:0.01 14:-0.03 15:-0.04 16:-0.03 17:-0.03 19:-0.02 
-1 1:-0.01 3:0.02 4:0.04 5:0.03 7:-0.02 8:-0.03 9:-0.02 10:0.01 11:0.01 13:-0.03 14:-0.04 15:-0.03 16:-0.03 18:-0.02 20:-0.02 
-1 2:-0.02 3:-0.03 4:-0.02 5:0.01 6:0.01 8:-0.03 9:-0.04 10:-0.03 11:-0.03 13:-0.02 15:-0.02 16:-0.01 18:0.02 19:-0.01 20:-0.04 
-1 1:-0.02 2:-0.03 3:-0.02 4:0.01 5:0.01 7:-0.03 8:-0.04 9:-0.03 10:-0.03 12:-0.02 14:-0.02 15:-0.01 17:0.02 18:-0.01 19:-0.04 20:-0.02 
-1 1:-0.03 2:-0.04 3:-0.03 4:-0.03 6:-0.02 8:-0.02 9:-0.01 11:0.02 12:-0.01 13:-0.04 14:-0.02 15:-0.01 16:-0.01 17:0.05 18:0.07 19:0.09 20:0.01 
-1 1:-0.03 2:-0.03 4:-0.02 6:-0.02 7:-0.01 9:0.02 10:-0.01 11:-0.04 12:-0.02 13:-0.01 14:-0.01 15:0.05 16:0.07 17:0.09 18:0.01 19:0.02 20:-0.01 
-1 1:-0.03 3:-0.02 5:-0.02 6:-0.01 8:0.02 9:-0.01 10:-0.04 11:-0.02 12:-0.01 13:-0.01 14:0.05 15:0.07 16:0.09 17:0.01 18:0.02 19:-0.01 20:0.02 
-1 2:-0.02 4:-0.02 5:-0.01 7:0.02 8:-0.01 9:-0.04 10:-0.02 11:-0.01 12:-0.01 13:0.05 14:0.07 15:0.09 16:0.01 17:0.02 18:-0.01 19:0.02 20:0.01 
-1 1:-0.02 3:-0.02 4:-0.01 6:0.02 7:-0.01 8:-0.04 9:-0.02 10:-0.01 11:-0.01 12:0.05 13:0.07 14:0.09 15:0.01 16:0.02 17:-0.01 18:0.02 19:0.01 20:0.02 
-1 2:-0.02 3:-0.01 5:0.02 6:-0.01 7:-0.04 8:-0.02 9:-0.01 10:-0.01 11:0.05 12:0.07 13:0.09 14:0.01 15:0.02 16:-0.01 17:0.02 18:0.01 19:0.02 20:0.02 
-1 1:-0.02 2:-0.01 4:0.02 5:-0.01 6:-0.04 7:-0.02 8:-0.01 9:-0.01 10:0.05 11:0.07 12:0.09 13:0.01 14:0.02 15:-0.01 16:0.02 17:0.01 18:0.02 19:0.02 20:0.02 
-1 1:-0.01 3:0.02 4:-0.01 5:-0.04 6:-0.02 7:-0.01 8:-0.01 9:0.05 10:0.07 11:0.09 12:0.01 13:0.02 14:-0.01 15:0.02 16:0.01 17:0.02 18:0.02 19:0.02 20:0.01 
-1 2:0.02 3:-0.01 4:-0.04 5:-0.02 6:-0.01 7:-0.01 8:0.05 9:0.07 10:0.09 11:0.01 12:0.02 13:-0.01 14:0.02 15:0.01 16:0.02 17:0.02 18:0.02 19:0.01 20:-0.01 
-1 1:0.02 2:-0.01 3:-0.04 4:-0.02 5:-0.01 6:-0.01 7:0.05 8:0.07 9:0.09 10:0.01 11:0.02 12:-0.01 13:0.02 14:0.01 15:0.02 16:0.02 17:0.02 18:0.01 19:-0.01 
-1 1:-0.01 2:-0.04 3:-0.02 4:-0.01 5:-0.01 6:0.05 7:0.07 8:0.09 9:0.01 10:0.02 11:-0.01 12:0.02 13:0.01 14:0.02 15:0.02 16:0.02 17:0.01 18:-0.01 
-1 1:-0.04 2:-0.02 3:-0.01 4:-0.01 5:0.05 6:0.07 7:0.09 8:0.01 9:0.02 10:-0.01 11:0.02 12:0.01 13:0.02 14:0.02 15:0.02 16:0.01 17:-0.01 20:-0.03 
-1 1:-0.02 2:-0.01 3:-0.01 4:0.05 5:0.07 6:0.09 7:0.01 8:0.02 9:-0.01 10:0.02 11:0.01 12:0.02 13:0.02 14:0.02 15:0.01 16:-0.01 19:-0.03 20:-0.02 
-1 1:-0.01 2:-0.01 3:0.05 4:0.07 5:0.09 6:0.01 7:0.02 8:-0.01 9:0.02 10:0.01 11:0.02 12:0.02 13:0.02 14:0.01 15:-0.01 18:-0.03 19:-0.02 20:-0.03 
-1 1:-0.01 2:0.05 3:0.07 4:0.09 5:0.01 6:0.02 7:-0.01 8:0.02 9:0.01 10:0.02 11:0.02 12:0.02 13:0.01 14:-0.01 17:-0.03 18:-0.02 19:-0.03 
-1 1:0.05 2:0.07 3:0.09 4:0.01 5:0.02 6:-0.01 7:0.02 8:0.01 9:0.02 10:0.02 11:0.02 12:0.01 13:-0.01 16:-0.03 17:-0.02 18:-0.03 
-1 1:0.07 2:0.09 3:0.01 4:0.02 5:-0.01 6:0.02 7:0.01 8:0.02 9:0.02 10:0.02 11:0.01 12:-0.01 15:-0.03 16:-0.02 17:-0.03 20:-0.01 
-1 1:0.09 2:0.01 3:0.02 4:-0.01 5:0.02 6:0.01 7:0.02 8:0.02 9:0.02 10:0.01 11:-0.01 14:-0.03 15:-0.02 16:-0.03 19:-0.01 
-1 1:0.01 2:0.02 3:-0.01 4:0.02 5:0.01 6:0.02 7:0.02 8:0.02 9:0.01 10:-0.01 13:-0.03 14:-0.02 15:-0.03 18:-0.01 20:-0.01 
-1 1:0.02 2:-0.01 3:0.02 4:0.01 5:0.02 6:0.02 7:0.02 8:0.01 9:-0.01 12:-0.03 13:-0.02 14:-0.03 17:-0.01 19:-0.01 20:0.01 
-1 1:-0.01 2:0.02 3:0.01 4:0.02 5:0.02 6:0.02 7:0.01 8:-0.01 11:-0.03 12:-0.02 13:-0.03 16:-0.01 18:-0.01 19:0.01 20:-0.01 
-1 1:0.02 2:0.01 3:0.02 4:0.02 5:0.02 6:0.01 7:-0.01 10:-0.03 11:-0.02 12:-0.03 15:-0.01 17:-0.01 18:0.01 19:-0.01 20:0.01 
-1 1:0.01 2:0.02 3:0.02 4:0.02 5:0.01 6:-0.01 9:-0.03 10:-0.02 11:-0.03 14:-0.01 16:-0.01 17:0.01 18:-0.01 19:0.01 
-1 1:0.02 2:0.02 3:0.02 4:0.01 5:-0.01 8:-0.03 9:-0.02 10:-0.03 13:-0.01 15:-0.01 16:0.01 17:-0.01 18:0.01 
-1 1:0.02 2:0.02 3:0.01 4:-0.01 7:-0.03 8:-0.02 9:-0.03 12:-0.01 14:-0.01 15:0.01 16:-0.01 17:0.01 20:-0.01 
-1 1:0.02 2:0.01 3:-0.01 6:-0.03 7:-0.02 8:-0.03 11:-0.01 13:-0.01 14:0.01 15:-0.01 16:0.01 19:-0.01 20:-0.04 
-1 1:0.01 2:-0.01 5:-0.03 6:-0.02 7:-0.03 10:-0.01 12:-0.01 13:0.01 14:-0.01 15:0.01 18:-0.01 19:-0.04 20:-0.03 
-1 1:-0.01 4:-0.03 5:-0.02 6:-0.03 9:-0.01 11:-0.01 12:0.01 13:-0.01 14:0.01 17:-0.01 18:-0.04 19:-0.03 20:-0.03 
-1 3:-0.03 4:-0.02 5:-0.03 8:-0.01 10:-0.01 11:0.01 12:-0.01 13:0.01 16:-0.01 17:-0.04 18:-0.03 19:-0.03 20:0.04 
-1 2:-0.03 3:-0.02 4:-0.03 7:-0.01 9:-0.01 10:0.01 11:-0.01 12:0.01 15:-0.01 16:-0.04 17:-0.03 18:-0.03 19:0.04 20:0.05 
-1 1:-0.03 2:-0.02 3:-0.03 6:-0.01 8:-0.01 9:0.01 10:-0.01 11:0.01 14:-0.01 15:-0.04 16:-0.03 17:-0.03 18:0.04 19:0.05 20:0.04 
-1 1:-0.02 2:-0.03 5:-0.01 7:-0.01 8:0.01 9:-0.01 10:0.01 13:-0.01 14:-0.04 15:-0.03 16:-0.03 17:0.04 18:0.05 19:0.04 20:0.01 
-1 1:-0.03 4:-0.01 6:-0.01 7:0.01 8:-0.01 9:0.01 12:-0.01 13:-0.04 14:-0.03 15:-0.03 16:0.04 17:0.05 18:0.04 19:0.01 20:0.01 
-1 3:-0.01 5:-0.01 6:0.01 7:-0.01 8:0.01 11:-0.01 12:-0.04 13:-0.03 14:-0.03 15:0.04 16:0.05 17:0.04 18:0.01 19:0.01 20:0.02 
-1 2:-0.01 4:-0.01 5:0.01 6:-0.01 7:0.01 10:-0.01 11:-0.04 12:-0.03 13:-0.03 14:0.04 15:0.05 16:0.04 17:0.01 18:0.01 19:0.02 
-1 1:-0.01 3:-0.01 4:0.01 5:-0.01 6:0.01 9:-0.01 10:-0.04 11:-0.03 12:-0.03 13:0.04 14:0.05 15:0.04 16:0.01 17:0.01 18:0.02 
-1 2:-0.01 3:0.01 4:-0.01 5:0.01 8:-0.01 9:-0.04 10:-0.03 11:-0.03 12:0.04 13:0.05 14:0.04 15:0.01 16:0.01 17:0.02 20:-0.03 
-1 1:-0.01 2:0.01 3:-0.01 4:0.01 7:-0.01 8:-0.04 9:-0.03 10:-0.03 11:0.04 12:0.05 13:0.04 14:0.01 15:0.01 16:0.02 19:-0.03 20:-0.01 
-1 1:0.01 2:-0.01 3:0.01 6:-0.01 7:-0.04 8:-0.03 9:-0.03 10:0.04 11:0.05 12:0.04 13:0.01 14:0.01 15:0.02 18:-0.03 19:-0.01 20:-0.01 
-1 1:-0.01 2:0.01 5:-0.01 6:-0.04 7:-0.03 8:-0.03 9:0.04 10:0.05 11:0.04 12:0.01 13:0.01 14:0.02 17:-0.03 18:-0.01 19:-0.01 
-1 1:0.01 4:-0.01 5:-0.04 6:-0.03 7:-0.03 8:0.04 9:0.05 10:0.04 11:0.01 12:0.01 13:0.02 16:-0.03 17:-0.01 18:-0.01 
-1 3:-0.01 4:-0.04 5:-0.03 6:-0.03 7:0.04 8:0.05 9:0.04 10:0.01 11:0.01 12:0.02 15:-0.03 16:-0.01 17:-0.01 20:0.01 
-1 2:-0.01 3:-0.04 4:-0.03 5:-0.03 6:0.04 7:0.05 8:0.04 9:0.01 10:0.01 11:0.02 14:-0.03 15:-0.01 16:-0.01 19:0.01 20:-0.01 
-1 1:-0.01 2:-0.04 3:-0.03 4:-0.03 5:0.04 6:0.05 7:0.04 8:0.01 9:0.01 10:0.02 13:-0.03 14:-0.01 15:-0.01 18:0.01 19:-0.01 20:-0.01 
-1 1:-0.04 2:-0.03 3:-0.03 4:0.04 5:0.05 6:0.04 7:0.01 8:0.01 9:0.02 12:-0.03 13:-0.01 14:-0.01 17:0.01 18:-0.01 19:-0.01 20:-0.02 
-1 1:-0.03 2:-0.03 3:0.04 4:0.05 5:0.04 6:0.01 7:0.01 8:0.02 11:-0.03 12:-0.01 13:-0.01 16:0.01 17:-0.01 18:-0.01 19:-0.02 20:-0.01 
-1 1:-0.03 2:0.04 3:0.05 4:0.04 5:0.01 6:0.01 7:0.02 10:-0.03 11:-0.01 12:-0.01 15:0.01 16:-0.01 17:-0.01 18:-0.02 19:-0.01 20:-0.01 
-1 1:0.04 2:0.05 3:0.04 4:0.01 5:0.01 6:0.02 9:-0.03 10:-0.01 11:-0.01 14:0.01 15:-0.01 16:-0.01 17:-0.02 18:-0.01 19:-0.01 20:0.02 
-1 1:0.05 2:0.04 3:0.01 4:0.01 5:0.02 8:-0.03 9:-0.01 10:-0.01 13:0.01 14:-0.01 15:-0.01 16:-0.02 17:-0.01 18:-0.01 19:0.02 20:0.01 
-1 1:0.04 2:0.01 3:0.01 4:0.02 7:-0.03 8:-0.01 9:-0.01 12:0.01 13:-0.01 14:-0.01 15:-0.02 16:-0.01 17:-0.01 18:0.02 19:0.01 20:0.03 
-1 1:0.01 2:0.01 3:0.02 6:-0.03 7:-0.01 8:-0.01 11:0.01 12:-0.01 13:-0.01 14:-0.02 15:-0.01 16:-0.01 17:0.02 18:0.01 19:0.03 
-1 1:0.01 2:0.02 5:-0.03 6:-0.01 7:-0.01 10:0.01 11:-0.01 12:-0.01 13:-0.02 14:-0.01 15:-0.01 16:0.02 17:0.01 18:0.03 
-1 1:0.02 4:-0.03 5:-0.01 6:-0.01 9:0.01 10:-0.01 11:-0.01 12:-0.02 13:-0.01 14:-0.01 15:0.02 16:0.01 17:0.03 20:0.01 
-1 3:-0.03 4:-0.01 5:-0.01 8:0.01 9:-0.01 10:-0.01 11:-0.02 12:-0.01 13:-0.01 14:0.02 15:0.01 16:0.03 19:0.01 
-1 2:-0.03 3:-0.01 4:-0.01 7:0.01 8:-0.01 9:-0.01 10:-0.02 11:-0.01 12:-0.01 13:0.02 14:0.01 15:0.03 18:0.01 
-1 1:-0.03 2:-0.01 3:-0.01 6:0.01 7:-0.01 8:-0.01 9:-0.02 10:-0.01 11:-0.01 12:0.02 13:0.01 14:0.03 17:0.01 20:-0.01 
-1 1:-0.01 2:-0.01 5:0.01 6:-0.01 7:-0.01 8:-0.02 9:-0.01 10:-0.01 11:0.02 12:0.01 13:0.03 16:0.01 19:-0.01 20:0.01 
-1 1:-0.01 4:0.01 5:-0.01 6:-0.01 7:-0.02 8:-0.01 9:-0.01 10:0.02 11:0.01 12:0.03 15:0.01 18:-0.01 19:0.01 20:0.01 
-1 3:0.01 4:-0.01 5:-0.01 6:-0.02 7:-0.01 8:-0.01 9:0.02 10:0.01 11:0.03 14:0.01 17:-0.01 18:0.01 19:0.01 20:0.01 
-1 1:-0.01 2:-0.02 3:-0.01 4:-0.01 5:0.02 6:0.01 7:0.03 10:0.01 13:-0.01 14:0.01 15:0.01 16:0.01 17:-0.02 18:-0.05 19:-0.03 20:-0.02 
-1 1:-0.02 2:-0.01 3:-0.01 4:0.02 5:0.01 6:0.03 9:0.01 12:-0.01 13:0.01 14:0.01 15:0.01 16:-0.02 17:-0.05 18:-0.03 19:-0.02 20:0.01 
-1 1:-0.01 2:-0.01 3:0.02 4:0.01 5:0.03 8:0.01 11:-0.01 12:0.01 13:0.01 14:0.01 15:-0.02 16:-0.05 17:-0.03 18:-0.02 19:0.01 20:0.01 
-1 1:-0.01 2:0.02 3:0.01 4:0.03 7:0.01 10:-0.01 11:0.01 12:0.01 13:0.01 14:-0.02 15:-0.05 16:-0.03 17:-0.02 18:0.01 19:0.01 20:0.01 
1 2:-0.01 3:-0.01 6:0.01 8:0.01 10:-0.01 17:0.02 18:0.02 19:0.01 
1 1:-0.01 2:-0.01 5:0.01 7:0.01 9:-0.01 16:0.02 17:0.02 18:0.01 20:-0.01 
1 1:-0.01 4:0.01 6:0.01 8:-0.01 15:0.02 16:0.02 17:0.01 19:-0.01 20:0.01 
1 3:0.01 5:0.01 7:-0.01 14:0.02 15:0.02 16:0.01 18:-0.01 19:0.01 20:0.01 
1 2:0.01 4:0.01 6:-0.01 13:0.02 14:0.02 15:0.01 17:-0.01 18:0.01 19:0.01 20:0.02 
1 1:0.01 3:0.01 5:-0.01 12:0.02 13:0.02 14:0.01 16:-0.01 17:0.01 18:0.01 19:0.02 20:0.01 
1 2:0.01 4:-0.01 11:0.02 12:0.02 13:0.01 15:-0.01 16:0.01 17:0.01 18:0.02 19:0.01 20:0.01 
1 1:0.01 3:-0.01 10:0.02 11:0.02 12:0.01 14:-0.01 15:0.01 16:0.01 17:0.02 18:0.01 19:0.01 20:0.09 
1 2:-0.01 9:0.02 10:0.02 11:0.01 13:-0.01 14:0.01 15:0.01 16:0.02 17:0.01 18:0.01 19:0.09 20:0.08 
1 1:-0.01 8:0.02 9:0.02 10:0.01 12:-0.01 13:0.01 14:0.01 15:0.02 16:0.01 17:0.01 18:0.09 19:0.08 20:0.08 
-1 1:0.01 3:-0.01 4:0.01 5:0.01 6:0.02 7:0.01 8:0.01 9:0.09 10:0.08 11:0.08 12:-0.02 14:0.01 15:0.02 16:0.02 17:0.03 18:0.04 19:0.04 20:0.05 
-1 2:-0.01 3:0.01 4:0.01 5:0.02 6:0.01 7:0.01 8:0.09 9:0.08 10:0.08 11:-0.02 13:0.01 14:0.02 15:0.02 16:0.03 17:0.04 18:0.04 19:0.05 20:0.04 
-1 1:-0.01 2:0.01 3:0.01 4:0.02 5:0.01 6:0.01 7:0.09 8:0.08 9:0.08 10:-0.02 12:0.01 13:0.02 14:0.02 15:0.03 16:0.04 17:0.04 18:0.05 19:0.04 20:0.01 
-1 1:0.01 2:0.01 3:0.02 4:0.01 5:0.01 6:0.09 7:0.08 8:0.08 9:-0.02 11:0.01 12:0.02 13:0.02 14:0.03 15:0.04 16:0.04 17:0.05 18:0.04 19:0.01 20:-0.04 
-1 1:0.01 2:0.02 3:0.01 4:0.01 5:0.09 6:0.08 7:0.08 8:-0.02 10:0.01 11:0.02 12:0.02 13:0.03 14:0.04 15:0.04 16:0.05 17:0.04 18:0.01 19:-0.04 20:-0.05 
-1 1:0.02 2:0.01 3:0.01 4:0.09 5:0.08 6:0.08 7:-0.02 9:0.01 10:0.02 11:0.02 12:0.03 13:0.04 14:0.04 15:0.05 16:0.04 17:0.01 18:-0.04 19:-0.05 20:-0.02 
1 1:0.08 2:0.08 3:-0.02 5:0.01 6:0.02 7:0.02 8:0.03 9:0.04 10:0.04 11:0.05 12:0.04 13:0.01 14:-0.04 15:-0.05 16:-0.02 18:-0.01 19:-0.01 20:-0.03 
1 1:0.08 2:-0.02 4:0.01 5:0.02 6:0.02 7:0.03 8:0.04 9:0.04 10:0.05 11:0.04 12:0.01 13:-0.04 14:-0.05 15:-0.02 17:-0.01 18:-0.01 19:-0.03 20:-0.02 
1 1:-0.02 3:0.01 4:0.02 5:0.02 6:0.03 7:0.04 8:0.04 9:0.05 10:0.04 11:0.01 12:-0.04 13:-0.05 14:-0.02 16:-0.01 17:-0.01 18:-0.03 19:-0.02 20:0.02 
1 2:0.01 3:0.02 4:0.02 5:0.03 6:0.04 7:0.04 8:0.05 9:0.04 10:0.01 11:-0.04 12:-0.05 13:-0.02 15:-0.01 16:-0.01 17:-0.03 18:-0.02 19:0.02 20:0.01 
1 1:0.01 2:0.02 3:0.02 4:0.03 5:0.04 6:0.04 7:0.05 8:0.04 9:0.01 10:-0.04 11:-0.05 12:-0.02 14:-0.01 15:-0.01 16:-0.03 17:-0.02 18:0.02 19:0.01 20:0.02 
1 1:0.02 2:0.02 3:0.03 4:0.04 5:0.04 6:0.05 7:0.04 8:0.01 9:-0.04 10:-0.05 11:-0.02 13:-0.01 14:-0.01 15:-0.03 16:-0.02 17:0.02 18:0.01 19:0.02 20:0.01 
0.5087198176202942 1:0.02 2:0.03 3:0.04 4:0.04 5:0.05 6:0.04 7:0.01 8:-0.04 9:-0.05 10:-0.02 12:-0.01 13:-0.01 14:-0.03 15:-0.02 16:0.02 17:0.01 18:0.02 19:0.01 20:0.01 
1 1:0.04 2:0.05 3:0.04 4:0.01 5:-0.04 6:-0.05 7:-0.02 9:-0.01 10:-0.01 11:-0.03 12:-0.02 13:0.02 14:0.01 15:0.02 16:0.01 17:0.01 18:0.03 19:0.03 20:0.02 
1 1:0.05 2:0.04 3:0.01 4:-0.04 5:-0.05 6:-0.02 8:-0.01 9:-0.01 10:-0.03 11:-0.02 12:0.02 13:0.01 14:0.02 15:0.01 16:0.01 17:0.03 18:0.03 19:0.02 
1 1:0.01 2:-0.04 3:-0.05 4:-0.02 6:-0.01 7:-0.01 8:-0.03 9:-0.02 10:0.02 11:0.01 12:0.02 13:0.01 14:0.01 15:0.03 16:0.03 17:0.02 19:0.03 20:0.1 
1 1:-0.04 2:-0.05 3:-0.02 5:-0.01 6:-0.01 7:-0.03 8:-0.02 9:0.02 10:0.01 11:0.02 12:0.01 13:0.01 14:0.03 15:0.03 16:0.02 18:0.03 19:0.1 20:0.07 
-1 1:-0.01 2:-0.03 3:-0.02 4:0.02 5:0.01 6:0.02 7:0.01 8:0.01 9:0.03 10:0.03 11:0.02 13:0.03 14:0.1 15:0.07 16:0.05 17:0.04 18:0.04 19:0.01 20:-0.04 
-1 1:-0.03 2:-0.02 3:0.02 4:0.01 5:0.02 6:0.01 7:0.01 8:0.03 9:0.03 10:0.02 12:0.03 13:0.1 14:0.07 15:0.05 16:0.04 17:0.04 18:0.01 19:-0.04 20:0.01 
-1 1:0.01 2:0.02 3:0.01 4:0.01 5:0.03 6:0.03 7:0.02 9:0.03 10:0.1 11:0.07 12:0.05 13:0.04 14:0.04 15:0.01 16:-0.04 17:0.01 18:0.01 20:-0.01 
-1 1:0.02 2:0.01 3:0.01 4:0.03 5:0.03 6:0.02 8:0.03 9:0.1 10:0.07 11:0.05 12:0.04 13:0.04 14:0.01 15:-0.04 16:0.01 17:0.01 19:-0.01 20:0.02 
1 2:0.03 3:0.1 4:0.07 5:0.05 6:0.04 7:0.04 8:0.01 9:-0.04 10:0.01 11:0.01 13:-0.01 14:0.02 15:0.02 16:0.06 17:0.04 18:0.04 19:-0.02 20:-0.02 
1 1:0.03 2:0.1 3:0.07 4:0.05 5:0.04 6:0.04 7:0.01 8:-0.04 9:0.01 10:0.01 12:-0.01 13:0.02 14:0.02 15:0.06 16:0.04 17:0.04 18:-0.02 19:-0.02 20:-0.01 
1 1:0.1 2:0.07 3:0.05 4:0.04 5:0.04 6:0.01 7:-0.04 8:0.01 9:0.01 11:-0.01 12:0.02 13:0.02 14:0.06 15:0.04 16:0.04 17:-0.02 18:-0.02 19:-0.01 
1 1:0.07 2:0.05 3:0.04 4:0.04 5:0.01 6:-0.04 7:0.01 8:0.01 10:-0.01 11:0.02 12:0.02 13:0.06 14:0.04 15:0.04 16:-0.02 17:-0.02 18:-0.01 20:0.01 
1 1:0.05 2:0.04 3:0.04 4:0.01 5:-0.04 6:0.01 7:0.01 9:-0.01 10:0.02 11:0.02 12:0.06 13:0.04 14:0.04 15:-0.02 16:-0.02 17:-0.01 19:0.01 
1 1:0.04 2:0.04 3:0.01 4:-0.04 5:0.01 6:0.01 8:-0.01 9:0.02 10:0.02 11:0.06 12:0.04 13:0.04 14:-0.02 15:-0.02 16:-0.01 18:0.01 20:-0.01 
1 1:0.04 2:0.01 3:-0.04 4:0.01 5:0.01 7:-0.01 8:0.02 9:0.02 10:0.06 11:0.04 12:0.04 13:-0.02 14:-0.02 15:-0.01 17:0.01 19:-0.01 20:-0.01 
1 1:0.01 2:-0.04 3:0.01 4:0.01 6:-0.01 7:0.02 8:0.02 9:0.06 10:0.04 11:0.04 12:-0.02 13:-0.02 14:-0.01 16:0.01 18:-0.01 19:-0.01 20:0.01 
1 1:-0.04 2:0.01 3:0.01 5:-0.01 6:0.02 7:0.02 8:0.06 9:0.04 10:0.04 11:-0.02 12:-0.02 13:-0.01 15:0.01 17:-0.01 18:-0.01 19:0.01 20:0.01 
1 1:0.01 2:0.01 4:-0.01 5:0.02 6:0.02 7:0.06 8:0.04 9:0.04 10:-0.02 11:-0.02 12:-0.01 14:0.01 16:-0.01 17:-0.01 18:0.01 19:0.01 
1 1:0.01 3:-0.01 4:0.02 5:0.02 6:0.06 7:0.04 8:0.04 9:-0.02 10:-0.02 11:-0.01 13:0.01 15:-0.01 16:-0.01 17:0.01 18:0.01 20:0.03 
1 2:-0.01 3:0.02 4:0.02 5:0.06 6:0.04 7:0.04 8:-0.02 9:-0.02 10:-0.01 12:0.01 14:-0.01 15:-0.01 16:0.01 17:0.01 19:0.03 20:0.03 
1 1:-0.01 2:0.02 3:0.02 4:0.06 5:0.04 6:0.04 7:-0.02 8:-0.02 9:-0.01 11:0.01 13:-0.01 14:-0.01 15:0.01 16:0.01 18:0.03 19:0.03 20:0.03 
1 1:0.02 2:0.02 3:0.06 4:0.04 5:0.04 6:-0.02 7:-0.02 8:-0.01 10:0.01 12:-0.01 13:-0.01 14:0.01 15:0.01 17:0.03 18:0.03 19:0.03 20:0.03 
1 1:0.02 2:0.06 3:0.04 4:0.04 5:-0.02 6:-0.02 7:-0.01 9:0.01 11:-0.01 12:-0.01 13:0.01 14:0.01 16:0.03 17:0.03 18:0.03 19:0.03 20:0.08 
1 1:0.06 2:0.04 3:0.04 4:-0.02 5:-0.02 6:-0.01 8:0.01 10:-0.01 11:-0.01 12:0.01 13:0.01 15:0.03 16:0.03 17:0.03 18:0.03 19:0.08 20:0.19 
1 1:0.04 2:0.04 3:-0.02 4:-0.02 5:-0.01 7:0.01 9:-0.01 10:-0.01 11:0.01 12:0.01 14:0.03 15:0.03 16:0.03 17:0.03 18:0.08 19:0.19 20:0.18 
1 1:0.04 2:-0.02 3:-0.02 4:-0.01 6:0.01 8:-0.01 9:-0.01 10:0.01 11:0.01 13:0.03 14:0.03 15:0.03 16:0.03 17:0.08 18:0.19 19:0.18 20:0.17 
-1 1:-0.01 3:0.01 5:-0.01 6:-0.01 7:0.01 8:0.01 10:0.03 11:0.03 12:0.03 13:0.03 14:0.08 15:0.19 16:0.18 17:0.17 18:0.07 19:0.05 
-1 2:0.01 4:-0.01 5:-0.01 6:0.01 7:0.01 9:0.03 10:0.03 11:0.03 12:0.03 13:0.08 14:0.19 15:0.18 16:0.17 17:0.07 18:0.05 20:-0.01 
-1 1:0.01 3:-0.01 4:-0.01 5:0.01 6:0.01 8:0.03 9:0.03 10:0.03 11:0.03 12:0.08 13:0.19 14:0.18 15:0.17 16:0.07 17:0.05 19:-0.01 20:0.02 
-1 2:-0.01 3:-0.01 4:0.01 5:0.01 7:0.03 8:0.03 9:0.03 10:0.03 11:0.08 12:0.19 13:0.18 14:0.17 15:0.07 16:0.05 18:-0.01 19:0.02 20:0.01 
-1 1:-0.01 2:-0.01 3:0.01 4:0.01 6:0.03 7:0.03 8:0.03 9:0.03 10:0.08 11:0.19 12:0.18 13:0.17 14:0.07 15:0.05 17:-0.01 18:0.02 19:0.01 
-1 1:-0.01 2:0.01 3:0.01 5:0.03 6:0.03 7:0.03 8:0.03 9:0.08 10:0.19 11:0.18 12:0.17 13:0.07 14:0.05 16:-0.01 17:0.02 18:0.01 20:0.01 
-1 1:0.01 2:0.01 4:0.03 5:0.03 6:0.03 7:0.03 8:0.08 9:0.19 10:0.18 11:0.17 12:0.07 13:0.05 15:-0.01 16:0.02 17:0.01 19:0.01 20:0.01 
-1 1:0.01 3:0.03 4:0.03 5:0.03 6:0.03 7:0.08 8:0.19 9:0.18 10:0.17 11:0.07 12:0.05 14:-0.01 15:0.02 16:0.01 18:0.01 19:0.01 20:0.01 
-1 2:0.03 3:0.03 4:0.03 5:0.03 6:0.08 7:0.19 8:0.18 9:0.17 10:0.07 11:0.05 13:-0.01 14:0.02 15:0.01 17:0.01 18:0.01 19:0.01 20:-0.01 
-1 1:0.03 2:0.03 3:0.03 4:0.03 5:0.08 6:0.19 7:0.18 8:0.17 9:0.07 10:0.05 12:-0.01 13:0.02 14:0.01 16:0.01 17:0.01 18:0.01 19:-0.01 20:-0.02 
-1 1:0.03 2:0.03 3:0.03 4:0.08 5:0.19 6:0.18 7:0.17 8:0.07 9:0.05 11:-0.01 12:0.02 13:0.01 15:0.01 16:0.01 17:0.01 18:-0.01 19:-0.02 20:-0.02 
-1 1:0.07 2:0.05 4:-0.01 5:0.02 6:0.01 8:0.01 9:0.01 10:0.01 11:-0.01 12:-0.02 13:-0.02 14:-0.02 16:0.03 17:0.03 18:0.02 20:-0.02 
-1 1:0.05 3:-0.01 4:0.02 5:0.01 7:0.01 8:0.01 9:0.01 10:-0.01 11:-0.02 12:-0.02 13:-0.02 15:0.03 16:0.03 17:0.02 19:-0.02 20:0.01 
